{"learner":{"attributes":{"scikit_learn":"{\"_estimator_type\": \"classifier\"}"},"feature_names":["SCOREMARGIN","TIME_REMAINING","PERIOD","TEAM_1","TEAM_2","PLAYER_1.1","PLAYER_1.2","PLAYER_1.3","PLAYER_1.4","PLAYER_1.5","PLAYER_2.1","PLAYER_2.2","PLAYER_2.3","PLAYER_2.4","PLAYER_2.5","SCORE_1","SCORE_2"],"feature_types":["float","float","float","int","int","float","float","float","float","float","float","float","float","float","float","int","int"],"gradient_booster":{"model":{"gbtree_model_param":{"num_parallel_tree":"1","num_trees":"200"},"iteration_indptr":[0,1,2,3,4,5,6,7,8,9,10,11,12,13,14,15,16,17,18,19,20,21,22,23,24,25,26,27,28,29,30,31,32,33,34,35,36,37,38,39,40,41,42,43,44,45,46,47,48,49,50,51,52,53,54,55,56,57,58,59,60,61,62,63,64,65,66,67,68,69,70,71,72,73,74,75,76,77,78,79,80,81,82,83,84,85,86,87,88,89,90,91,92,93,94,95,96,97,98,99,100,101,102,103,104,105,106,107,108,109,110,111,112,113,114,115,116,117,118,119,120,121,122,123,124,125,126,127,128,129,130,131,132,133,134,135,136,137,138,139,140,141,142,143,144,145,146,147,148,149,150,151,152,153,154,155,156,157,158,159,160,161,162,163,164,165,166,167,168,169,170,171,172,173,174,175,176,177,178,179,180,181,182,183,184,185,186,187,188,189,190,191,192,193,194,195,196,197,198,199,200],"tree_info":[0,0,0,0,0,0,0,0,0,0,0,0,0,0,0,0,0,0,0,0,0,0,0,0,0,0,0,0,0,0,0,0,0,0,0,0,0,0,0,0,0,0,0,0,0,0,0,0,0,0,0,0,0,0,0,0,0,0,0,0,0,0,0,0,0,0,0,0,0,0,0,0,0,0,0,0,0,0,0,0,0,0,0,0,0,0,0,0,0,0,0,0,0,0,0,0,0,0,0,0,0,0,0,0,0,0,0,0,0,0,0,0,0,0,0,0,0,0,0,0,0,0,0,0,0,0,0,0,0,0,0,0,0,0,0,0,0,0,0,0,0,0,0,0,0,0,0,0,0,0,0,0,0,0,0,0,0,0,0,0,0,0,0,0,0,0,0,0,0,0,0,0,0,0,0,0,0,0,0,0,0,0,0,0,0,0,0,0,0,0,0,0,0,0,0,0,0,0,0,0],"trees":[{"base_weights":[-2.5754702E-1,-5.2706224E-1,3.9694253E-1,-7.952755E-3,-3.670563E-3,6.202641E-3,2.4116522E-4],"categories":[],"categories_nodes":[],"categories_segments":[],"categories_sizes":[],"default_left":[0,0,0,0,0,0,0],"id":0,"left_children":[1,3,5,-1,-1,-1,-1],"loss_changes":[3.4416406E3,5.8875903E2,4.6109808E2,0E0,0E0,0E0,0E0],"parents":[2147483647,0,0,1,1,2,2],"right_children":[2,4,6,-1,-1,-1,-1],"split_conditions":[4.8586696E-1,-5.03415E-1,-4.8960976E-2,-7.952755E-3,-3.670563E-3,6.202641E-3,2.4116522E-4],"split_indices":[0,0,10,0,0,0,0],"split_type":[0,0,0,0,0,0,0],"sum_hessian":[1.9511E4,1.382E4,5.691E3,5.334E3,8.486E3,3.597E3,2.094E3],"tree_param":{"num_deleted":"0","num_feature":"17","num_nodes":"7","size_leaf_vector":"1"}},{"base_weights":[-2.5713703E-1,-5.8050436E-1,2.951408E-1,-8.4928535E-3,-4.512503E-3,5.2993265E-3,-7.2453363E-4],"categories":[],"categories_nodes":[],"categories_segments":[],"categories_sizes":[],"default_left":[0,0,0,0,0,0,0],"id":1,"left_children":[1,3,5,-1,-1,-1,-1],"loss_changes":[3.5031943E3,4.307622E2,6.100516E2,0E0,0E0,0E0,0E0],"parents":[2147483647,0,0,1,1,2,2],"right_children":[2,4,6,-1,-1,-1,-1],"split_conditions":[3.0599752E-1,-6.8328446E-1,1.6E1,-8.4928535E-3,-4.512503E-3,5.2993265E-3,-7.2453363E-4],"split_indices":[0,0,3,0,0,0,0],"split_type":[0,0,0,0,0,0,0],"sum_hessian":[1.9616E4,1.2372E4,7.244E3,4.198E3,8.174E3,4.456E3,2.788E3],"tree_param":{"num_deleted":"0","num_feature":"17","num_nodes":"7","size_leaf_vector":"1"}},{"base_weights":[-2.567602E-1,-5.8167493E-1,2.948152E-1,-8.469657E-3,-4.519144E-3,7.5809862E-3,1.089928E-3],"categories":[],"categories_nodes":[],"categories_segments":[],"categories_sizes":[],"default_left":[0,0,0,0,0,0,0],"id":2,"left_children":[1,3,5,-1,-1,-1,-1],"loss_changes":[3.5059824E3,4.2455273E2,6.177654E2,0E0,0E0,0E0,0E0],"parents":[2147483647,0,0,1,1,2,2],"right_children":[2,4,6,-1,-1,-1,-1],"split_conditions":[3.0599752E-1,-6.8328446E-1,-1.0843943E0,-8.469657E-3,-4.519144E-3,7.5809862E-3,1.089928E-3],"split_indices":[0,0,12,0,0,0,0],"split_type":[0,0,0,0,0,0,0],"sum_hessian":[1.9563E4,1.2311E4,7.252E3,4.225E3,8.086E3,2.109E3,5.143E3],"tree_param":{"num_deleted":"0","num_feature":"17","num_nodes":"7","size_leaf_vector":"1"}},{"base_weights":[-2.5816843E-1,-5.818815E-1,2.9545453E-1,-8.466909E-3,-4.5141475E-3,7.581009E-3,1.0958944E-3],"categories":[],"categories_nodes":[],"categories_segments":[],"categories_sizes":[],"default_left":[0,0,0,0,0,0,0],"id":3,"left_children":[1,3,5,-1,-1,-1,-1],"loss_changes":[3.5049082E3,4.2701367E2,6.139991E2,0E0,0E0,0E0,0E0],"parents":[2147483647,0,0,1,1,2,2],"right_children":[2,4,6,-1,-1,-1,-1],"split_conditions":[3.0599752E-1,-6.8328446E-1,-1.0843943E0,-8.466909E-3,-4.5141475E-3,7.581009E-3,1.0958944E-3],"split_indices":[0,0,12,0,0,0,0],"split_type":[0,0,0,0,0,0,0],"sum_hessian":[1.9557E4,1.2341E4,7.216E3,4.255E3,8.086E3,2.101E3,5.115E3],"tree_param":{"num_deleted":"0","num_feature":"17","num_nodes":"7","size_leaf_vector":"1"}},{"base_weights":[-2.560119E-1,-5.2653295E-1,4.0070298E-1,-7.99096E-3,-3.6261615E-3,6.1924956E-3,3.5726576E-4],"categories":[],"categories_nodes":[],"categories_segments":[],"categories_sizes":[],"default_left":[0,0,0,0,0,0,0],"id":4,"left_children":[1,3,5,-1,-1,-1,-1],"loss_changes":[3.4648098E3,6.12343E2,4.4155396E2,0E0,0E0,0E0,0E0],"parents":[2147483647,0,0,1,1,2,2],"right_children":[2,4,6,-1,-1,-1,-1],"split_conditions":[4.8586696E-1,-5.03415E-1,-4.8960976E-2,-7.99096E-3,-3.6261615E-3,6.1924956E-3,3.5726576E-4],"split_indices":[0,0,10,0,0,0,0],"split_type":[0,0,0,0,0,0,0],"sum_hessian":[1.9503E4,1.3813E4,5.69E3,5.354E3,8.459E3,3.598E3,2.092E3],"tree_param":{"num_deleted":"0","num_feature":"17","num_nodes":"7","size_leaf_vector":"1"}},{"base_weights":[-2.5484198E-1,-5.819639E-1,3.012247E-1,-8.501611E-3,-4.515937E-3,5.3338087E-3,-6.496227E-4],"categories":[],"categories_nodes":[],"categories_segments":[],"categories_sizes":[],"default_left":[0,0,0,0,0,0,0],"id":5,"left_children":[1,3,5,-1,-1,-1,-1],"loss_changes":[3.5689092E3,4.3271436E2,6.026728E2,0E0,0E0,0E0,0E0],"parents":[2147483647,0,0,1,1,2,2],"right_children":[2,4,6,-1,-1,-1,-1],"split_conditions":[3.0599752E-1,-6.8328446E-1,1.6E1,-8.501611E-3,-4.515937E-3,5.3338087E-3,-6.496227E-4],"split_indices":[0,0,3,0,0,0,0],"split_type":[0,0,0,0,0,0,0],"sum_hessian":[1.962E4,1.2353E4,7.267E3,4.221E3,8.132E3,4.484E3,2.783E3],"tree_param":{"num_deleted":"0","num_feature":"17","num_nodes":"7","size_leaf_vector":"1"}},{"base_weights":[-2.5802982E-1,-5.2703583E-1,3.9327025E-1,-7.981435E-3,-3.643444E-3,4.797548E-3,-5.78764E-3],"categories":[],"categories_nodes":[],"categories_segments":[],"categories_sizes":[],"default_left":[0,0,0,0,0,0,0],"id":6,"left_children":[1,3,5,-1,-1,-1,-1],"loss_changes":[3.42015E3,6.0469214E2,4.50662E2,0E0,0E0,0E0,0E0],"parents":[2147483647,0,0,1,1,2,2],"right_children":[2,4,6,-1,-1,-1,-1],"split_conditions":[4.8586696E-1,-5.03415E-1,2.6E1,-7.981435E-3,-3.643444E-3,4.797548E-3,-5.78764E-3],"split_indices":[0,0,3,0,0,0,0],"split_type":[0,0,0,0,0,0,0],"sum_hessian":[1.9521E4,1.3815E4,5.706E3,5.349E3,8.466E3,5.261E3,4.45E2],"tree_param":{"num_deleted":"0","num_feature":"17","num_nodes":"7","size_leaf_vector":"1"}},{"base_weights":[-2.5627267E-1,-5.796054E-1,2.928847E-1,-8.496748E-3,-4.4949595E-3,7.488013E-3,1.0881161E-3],"categories":[],"categories_nodes":[],"categories_segments":[],"categories_sizes":[],"default_left":[0,0,0,0,0,0,0],"id":7,"left_children":[1,3,5,-1,-1,-1,-1],"loss_changes":[3.474683E3,4.3366357E2,6.022096E2,0E0,0E0,0E0,0E0],"parents":[2147483647,0,0,1,1,2,2],"right_children":[2,4,6,-1,-1,-1,-1],"split_conditions":[3.0599752E-1,-6.8328446E-1,-1.0843943E0,-8.496748E-3,-4.4949595E-3,7.488013E-3,1.0881161E-3],"split_indices":[0,0,12,0,0,0,0],"split_type":[0,0,0,0,0,0,0],"sum_hessian":[1.9569E4,1.2317E4,7.252E3,4.183E3,8.134E3,2.119E3,5.133E3],"tree_param":{"num_deleted":"0","num_feature":"17","num_nodes":"7","size_leaf_vector":"1"}},{"base_weights":[-2.5557426E-1,-5.5208886E-1,3.4778568E-1,-7.9691345E-3,-3.91983E-3,7.969855E-3,1.5930881E-3],"categories":[],"categories_nodes":[],"categories_segments":[],"categories_sizes":[],"default_left":[0,0,0,0,0,0,0],"id":8,"left_children":[1,3,5,-1,-1,-1,-1],"loss_changes":[3.5063599E3,5.1058203E2,5.4164935E2,0E0,0E0,0E0,0E0],"parents":[2147483647,0,0,1,1,2,2],"right_children":[2,4,6,-1,-1,-1,-1],"split_conditions":[3.9593226E-1,-5.03415E-1,-1.0843943E0,-7.9691345E-3,-3.91983E-3,7.969855E-3,1.5930881E-3],"split_indices":[0,0,12,0,0,0,0],"split_type":[0,0,0,0,0,0,0],"sum_hessian":[1.9599E4,1.3141E4,6.458E3,5.375E3,7.766E3,1.944E3,4.514E3],"tree_param":{"num_deleted":"0","num_feature":"17","num_nodes":"7","size_leaf_vector":"1"}},{"base_weights":[-2.5816357E-1,-5.5538565E-1,3.439678E-1,-7.9868855E-3,-3.9822557E-3,7.945749E-3,1.5521258E-3],"categories":[],"categories_nodes":[],"categories_segments":[],"categories_sizes":[],"default_left":[0,0,0,0,0,0,0],"id":9,"left_children":[1,3,5,-1,-1,-1,-1],"loss_changes":[3.4966523E3,4.9606836E2,5.440015E2,0E0,0E0,0E0,0E0],"parents":[2147483647,0,0,1,1,2,2],"right_children":[2,4,6,-1,-1,-1,-1],"split_conditions":[3.9593226E-1,-5.03415E-1,-1.0843943E0,-7.9868855E-3,-3.9822557E-3,7.945749E-3,1.5521258E-3],"split_indices":[0,0,12,0,0,0,0],"split_type":[0,0,0,0,0,0,0],"sum_hessian":[1.9538E4,1.3081E4,6.457E3,5.315E3,7.766E3,1.941E3,4.516E3],"tree_param":{"num_deleted":"0","num_feature":"17","num_nodes":"7","size_leaf_vector":"1"}},{"base_weights":[-2.5646287E-1,-5.808919E-1,2.966149E-1,-8.438402E-3,-4.5403894E-3,7.535378E-3,1.1257394E-3],"categories":[],"categories_nodes":[],"categories_segments":[],"categories_sizes":[],"default_left":[0,0,0,0,0,0,0],"id":10,"left_children":[1,3,5,-1,-1,-1,-1],"loss_changes":[3.498255E3,4.1091602E2,5.9985266E2,0E0,0E0,0E0,0E0],"parents":[2147483647,0,0,1,1,2,2],"right_children":[2,4,6,-1,-1,-1,-1],"split_conditions":[3.0599752E-1,-6.8328446E-1,-1.0843943E0,-8.438402E-3,-4.5403894E-3,7.535378E-3,1.1257394E-3],"split_indices":[0,0,12,0,0,0,0],"split_type":[0,0,0,0,0,0,0],"sum_hessian":[1.9496E4,1.2288E4,7.208E3,4.182E3,8.106E3,2.103E3,5.105E3],"tree_param":{"num_deleted":"0","num_feature":"17","num_nodes":"7","size_leaf_vector":"1"}},{"base_weights":[-2.5593317E-1,-5.799837E-1,2.9574734E-1,-8.479985E-3,-4.4831824E-3,7.595548E-3,1.1104093E-3],"categories":[],"categories_nodes":[],"categories_segments":[],"categories_sizes":[],"default_left":[0,0,0,0,0,0,0],"id":11,"left_children":[1,3,5,-1,-1,-1,-1],"loss_changes":[3.4876702E3,4.3427002E2,6.120326E2,0E0,0E0,0E0,0E0],"parents":[2147483647,0,0,1,1,2,2],"right_children":[2,4,6,-1,-1,-1,-1],"split_conditions":[3.0599752E-1,-6.8328446E-1,-1.0843943E0,-8.479985E-3,-4.4831824E-3,7.595548E-3,1.1104093E-3],"split_indices":[0,0,12,0,0,0,0],"split_type":[0,0,0,0,0,0,0],"sum_hessian":[1.9509E4,1.229E4,7.219E3,4.227E3,8.063E3,2.089E3,5.13E3],"tree_param":{"num_deleted":"0","num_feature":"17","num_nodes":"7","size_leaf_vector":"1"}},{"base_weights":[-2.5614503E-1,-5.791697E-1,2.9463914E-1,-8.45043E-3,-4.5083733E-3,7.535378E-3,1.1016028E-3],"categories":[],"categories_nodes":[],"categories_segments":[],"categories_sizes":[],"default_left":[0,0,0,0,0,0,0],"id":12,"left_children":[1,3,5,-1,-1,-1,-1],"loss_changes":[3.4743608E3,4.209165E2,6.0475824E2,0E0,0E0,0E0,0E0],"parents":[2147483647,0,0,1,1,2,2],"right_children":[2,4,6,-1,-1,-1,-1],"split_conditions":[3.0599752E-1,-6.8328446E-1,-1.0843943E0,-8.45043E-3,-4.5083733E-3,7.535378E-3,1.1016028E-3],"split_indices":[0,0,12,0,0,0,0],"split_type":[0,0,0,0,0,0,0],"sum_hessian":[1.9528E4,1.2309E4,7.219E3,4.188E3,8.121E3,2.103E3,5.116E3],"tree_param":{"num_deleted":"0","num_feature":"17","num_nodes":"7","size_leaf_vector":"1"}},{"base_weights":[-2.5479367E-1,-5.78007E-1,2.9458863E-1,-8.410266E-3,-4.5023197E-3,7.635176E-3,1.0755538E-3],"categories":[],"categories_nodes":[],"categories_segments":[],"categories_sizes":[],"default_left":[0,0,0,0,0,0,0],"id":13,"left_children":[1,3,5,-1,-1,-1,-1],"loss_changes":[3.4726914E3,4.1468604E2,6.286542E2,0E0,0E0,0E0,0E0],"parents":[2147483647,0,0,1,1,2,2],"right_children":[2,4,6,-1,-1,-1,-1],"split_conditions":[3.0599752E-1,-6.8328446E-1,-1.0843943E0,-8.410266E-3,-4.5023197E-3,7.635176E-3,1.0755538E-3],"split_indices":[0,0,12,0,0,0,0],"split_type":[0,0,0,0,0,0,0],"sum_hessian":[1.9557E4,1.2313E4,7.244E3,4.208E3,8.105E3,2.098E3,5.146E3],"tree_param":{"num_deleted":"0","num_feature":"17","num_nodes":"7","size_leaf_vector":"1"}},{"base_weights":[-2.596923E-1,-5.8188325E-1,2.9047486E-1,-8.478595E-3,-4.534541E-3,7.587081E-3,1.031338E-3],"categories":[],"categories_nodes":[],"categories_segments":[],"categories_sizes":[],"default_left":[0,0,0,0,0,0,0],"id":14,"left_children":[1,3,5,-1,-1,-1,-1],"loss_changes":[3.456548E3,4.2105176E2,6.250074E2,0E0,0E0,0E0,0E0],"parents":[2147483647,0,0,1,1,2,2],"right_children":[2,4,6,-1,-1,-1,-1],"split_conditions":[3.0599752E-1,-6.8328446E-1,-1.0843943E0,-8.478595E-3,-4.534541E-3,7.587081E-3,1.031338E-3],"split_indices":[0,0,12,0,0,0,0],"split_type":[0,0,0,0,0,0,0],"sum_hessian":[1.95E4,1.2298E4,7.202E3,4.186E3,8.112E3,2.09E3,5.112E3],"tree_param":{"num_deleted":"0","num_feature":"17","num_nodes":"7","size_leaf_vector":"1"}},{"base_weights":[-2.5666615E-1,-5.2630055E-1,3.9201674E-1,-7.946088E-3,-3.6480525E-3,6.1091185E-3,2.8611897E-4],"categories":[],"categories_nodes":[],"categories_segments":[],"categories_sizes":[],"default_left":[0,0,0,0,0,0,0],"id":15,"left_children":[1,3,5,-1,-1,-1,-1],"loss_changes":[3.4175122E3,5.934949E2,4.440996E2,0E0,0E0,0E0,0E0],"parents":[2147483647,0,0,1,1,2,2],"right_children":[2,4,6,-1,-1,-1,-1],"split_conditions":[4.8586696E-1,-5.03415E-1,-4.8960976E-2,-7.946088E-3,-3.6480525E-3,6.1091185E-3,2.8611897E-4],"split_indices":[0,0,10,0,0,0,0],"split_type":[0,0,0,0,0,0,0],"sum_hessian":[1.9539E4,1.3802E4,5.737E3,5.355E3,8.447E3,3.619E3,2.118E3],"tree_param":{"num_deleted":"0","num_feature":"17","num_nodes":"7","size_leaf_vector":"1"}},{"base_weights":[-2.5987312E-1,-5.8275944E-1,2.9326856E-1,-8.463713E-3,-4.545684E-3,7.5821797E-3,1.0486555E-3],"categories":[],"categories_nodes":[],"categories_segments":[],"categories_sizes":[],"default_left":[0,0,0,0,0,0,0],"id":16,"left_children":[1,3,5,-1,-1,-1,-1],"loss_changes":[3.4913093E3,4.1802295E2,6.243743E2,0E0,0E0,0E0,0E0],"parents":[2147483647,0,0,1,1,2,2],"right_children":[2,4,6,-1,-1,-1,-1],"split_conditions":[3.0599752E-1,-6.8328446E-1,-1.0843943E0,-8.463713E-3,-4.545684E-3,7.5821797E-3,1.0486555E-3],"split_indices":[0,0,12,0,0,0,0],"split_type":[0,0,0,0,0,0,0],"sum_hessian":[1.9548E4,1.2343E4,7.205E3,4.222E3,8.121E3,2.11E3,5.095E3],"tree_param":{"num_deleted":"0","num_feature":"17","num_nodes":"7","size_leaf_vector":"1"}},{"base_weights":[-2.60281E-1,-5.828311E-1,2.8792912E-1,-8.424713E-3,-4.5745736E-3,5.248551E-3,-8.486476E-4],"categories":[],"categories_nodes":[],"categories_segments":[],"categories_sizes":[],"default_left":[0,0,0,0,0,0,0],"id":17,"left_children":[1,3,5,-1,-1,-1,-1],"loss_changes":[3.4484456E3,4.0080908E2,6.226553E2,0E0,0E0,0E0,0E0],"parents":[2147483647,0,0,1,1,2,2],"right_children":[2,4,6,-1,-1,-1,-1],"split_conditions":[3.0599752E-1,-6.8328446E-1,1.6E1,-8.424713E-3,-4.5745736E-3,5.248551E-3,-8.486476E-4],"split_indices":[0,0,3,0,0,0,0],"split_type":[0,0,0,0,0,0,0],"sum_hessian":[1.9502E4,1.2278E4,7.224E3,4.184E3,8.094E3,4.451E3,2.773E3],"tree_param":{"num_deleted":"0","num_feature":"17","num_nodes":"7","size_leaf_vector":"1"}},{"base_weights":[-2.5834313E-1,-5.835229E-1,2.9301557E-1,-8.509828E-3,-4.5422623E-3,7.5678607E-3,1.0558107E-3],"categories":[],"categories_nodes":[],"categories_segments":[],"categories_sizes":[],"default_left":[0,0,0,0,0,0,0],"id":18,"left_children":[1,3,5,-1,-1,-1,-1],"loss_changes":[3.5081812E3,4.2656152E2,6.242676E2,0E0,0E0,0E0,0E0],"parents":[2147483647,0,0,1,1,2,2],"right_children":[2,4,6,-1,-1,-1,-1],"split_conditions":[3.0599752E-1,-6.8328446E-1,-1.0843943E0,-8.509828E-3,-4.5422623E-3,7.5678607E-3,1.0558107E-3],"split_indices":[0,0,12,0,0,0,0],"split_type":[0,0,0,0,0,0,0],"sum_hessian":[1.9567E4,1.2308E4,7.259E3,4.192E3,8.116E3,2.122E3,5.137E3],"tree_param":{"num_deleted":"0","num_feature":"17","num_nodes":"7","size_leaf_vector":"1"}},{"base_weights":[-2.5858358E-1,-5.799984E-1,2.9173037E-1,-8.470811E-3,-4.522887E-3,7.541333E-3,1.0526202E-3],"categories":[],"categories_nodes":[],"categories_segments":[],"categories_sizes":[],"default_left":[0,0,0,0,0,0,0],"id":19,"left_children":[1,3,5,-1,-1,-1,-1],"loss_changes":[3.451618E3,4.2126562E2,6.13772E2,0E0,0E0,0E0,0E0],"parents":[2147483647,0,0,1,1,2,2],"right_children":[2,4,6,-1,-1,-1,-1],"split_conditions":[3.0599752E-1,-6.8328446E-1,-1.0843943E0,-8.470811E-3,-4.522887E-3,7.541333E-3,1.0526202E-3],"split_indices":[0,0,12,0,0,0,0],"split_type":[0,0,0,0,0,0,0],"sum_hessian":[1.9514E4,1.2319E4,7.195E3,4.166E3,8.153E3,2.1E3,5.095E3],"tree_param":{"num_deleted":"0","num_feature":"17","num_nodes":"7","size_leaf_vector":"1"}},{"base_weights":[-2.5939983E-1,-5.7922965E-1,2.8807902E-1,-8.433475E-3,-4.5088395E-3,7.468988E-3,1.0332024E-3],"categories":[],"categories_nodes":[],"categories_segments":[],"categories_sizes":[],"default_left":[0,0,0,0,0,0,0],"id":20,"left_children":[1,3,5,-1,-1,-1,-1],"loss_changes":[3.413576E3,4.180166E2,6.029162E2,0E0,0E0,0E0,0E0],"parents":[2147483647,0,0,1,1,2,2],"right_children":[2,4,6,-1,-1,-1,-1],"split_conditions":[3.0599752E-1,-6.8328446E-1,-1.0843943E0,-8.433475E-3,-4.5088395E-3,7.468988E-3,1.0332024E-3],"split_indices":[0,0,12,0,0,0,0],"split_type":[0,0,0,0,0,0,0],"sum_hessian":[1.9495E4,1.2306E4,7.189E3,4.206E3,8.1E3,2.096E3,5.093E3],"tree_param":{"num_deleted":"0","num_feature":"17","num_nodes":"7","size_leaf_vector":"1"}},{"base_weights":[-2.565273E-1,-5.774854E-1,2.9360992E-1,-8.410248E-3,-4.4999504E-3,5.279856E-3,-7.7635696E-4],"categories":[],"categories_nodes":[],"categories_segments":[],"categories_sizes":[],"default_left":[0,0,0,0,0,0,0],"id":21,"left_children":[1,3,5,-1,-1,-1,-1],"loss_changes":[3.442251E3,4.1459668E2,6.0979425E2,0E0,0E0,0E0,0E0],"parents":[2147483647,0,0,1,1,2,2],"right_children":[2,4,6,-1,-1,-1,-1],"split_conditions":[3.0599752E-1,-6.8328446E-1,1.6E1,-8.410248E-3,-4.4999504E-3,5.279856E-3,-7.7635696E-4],"split_indices":[0,0,3,0,0,0,0],"split_type":[0,0,0,0,0,0,0],"sum_hessian":[1.9495E4,1.2312E4,7.183E3,4.196E3,8.116E3,4.438E3,2.745E3],"tree_param":{"num_deleted":"0","num_feature":"17","num_nodes":"7","size_leaf_vector":"1"}},{"base_weights":[-2.575254E-1,-5.274304E-1,3.9392883E-1,-7.953797E-3,-3.6728352E-3,6.1147003E-3,3.2025555E-4],"categories":[],"categories_nodes":[],"categories_segments":[],"categories_sizes":[],"default_left":[0,0,0,0,0,0,0],"id":22,"left_children":[1,3,5,-1,-1,-1,-1],"loss_changes":[3.4404805E3,5.893135E2,4.3909943E2,0E0,0E0,0E0,0E0],"parents":[2147483647,0,0,1,1,2,2],"right_children":[2,4,6,-1,-1,-1,-1],"split_conditions":[4.8586696E-1,-5.03415E-1,-4.8960976E-2,-7.953797E-3,-3.6728352E-3,6.1147003E-3,3.2025555E-4],"split_indices":[0,0,10,0,0,0,0],"split_type":[0,0,0,0,0,0,0],"sum_hessian":[1.9567E4,1.3835E4,5.732E3,5.346E3,8.489E3,3.619E3,2.113E3],"tree_param":{"num_deleted":"0","num_feature":"17","num_nodes":"7","size_leaf_vector":"1"}},{"base_weights":[-2.604482E-1,-5.3034914E-1,3.9385426E-1,-7.984954E-3,-3.6798078E-3,6.1848783E-3,2.1121671E-4],"categories":[],"categories_nodes":[],"categories_segments":[],"categories_sizes":[],"default_left":[0,0,0,0,0,0,0],"id":23,"left_children":[1,3,5,-1,-1,-1,-1],"loss_changes":[3.443815E3,5.964595E2,4.6409406E2,0E0,0E0,0E0,0E0],"parents":[2147483647,0,0,1,1,2,2],"right_children":[2,4,6,-1,-1,-1,-1],"split_conditions":[4.8586696E-1,-5.03415E-1,-4.8960976E-2,-7.984954E-3,-3.6798078E-3,6.1848783E-3,2.1121671E-4],"split_indices":[0,0,10,0,0,0,0],"split_type":[0,0,0,0,0,0,0],"sum_hessian":[1.9501E4,1.3806E4,5.695E3,5.377E3,8.429E3,3.591E3,2.104E3],"tree_param":{"num_deleted":"0","num_feature":"17","num_nodes":"7","size_leaf_vector":"1"}},{"base_weights":[-2.570347E-1,-5.80653E-1,2.9751492E-1,-8.478418E-3,-4.5174095E-3,7.5107445E-3,1.1231056E-3],"categories":[],"categories_nodes":[],"categories_segments":[],"categories_sizes":[],"default_left":[0,0,0,0,0,0,0],"id":24,"left_children":[1,3,5,-1,-1,-1,-1],"loss_changes":[3.507772E3,4.260708E2,5.987136E2,0E0,0E0,0E0,0E0],"parents":[2147483647,0,0,1,1,2,2],"right_children":[2,4,6,-1,-1,-1,-1],"split_conditions":[3.0599752E-1,-6.8328446E-1,-1.0843943E0,-8.478418E-3,-4.5174095E-3,7.5107445E-3,1.1231056E-3],"split_indices":[0,0,12,0,0,0,0],"split_type":[0,0,0,0,0,0,0],"sum_hessian":[1.9546E4,1.2343E4,7.203E3,4.198E3,8.145E3,2.122E3,5.081E3],"tree_param":{"num_deleted":"0","num_feature":"17","num_nodes":"7","size_leaf_vector":"1"}},{"base_weights":[-2.559762E-1,-5.7834667E-1,2.910902E-1,-8.431095E-3,-4.4927844E-3,5.2641463E-3,-7.9823163E-4],"categories":[],"categories_nodes":[],"categories_segments":[],"categories_sizes":[],"default_left":[0,0,0,0,0,0,0],"id":25,"left_children":[1,3,5,-1,-1,-1,-1],"loss_changes":[3.4379233E3,4.1993457E2,6.156081E2,0E0,0E0,0E0,0E0],"parents":[2147483647,0,0,1,1,2,2],"right_children":[2,4,6,-1,-1,-1,-1],"split_conditions":[3.0599752E-1,-6.8328446E-1,1.6E1,-8.431095E-3,-4.4927844E-3,5.2641463E-3,-7.9823163E-4],"split_indices":[0,0,3,0,0,0,0],"split_type":[0,0,0,0,0,0,0],"sum_hessian":[1.9494E4,1.2266E4,7.228E3,4.2E3,8.066E3,4.457E3,2.771E3],"tree_param":{"num_deleted":"0","num_feature":"17","num_nodes":"7","size_leaf_vector":"1"}},{"base_weights":[-2.5618312E-1,-5.2784413E-1,3.9965034E-1,-7.932213E-3,-3.6821794E-3,6.2095877E-3,2.932413E-4],"categories":[],"categories_nodes":[],"categories_segments":[],"categories_sizes":[],"default_left":[0,0,0,0,0,0,0],"id":26,"left_children":[1,3,5,-1,-1,-1,-1],"loss_changes":[3.4793726E3,5.8061816E2,4.5612427E2,0E0,0E0,0E0,0E0],"parents":[2147483647,0,0,1,1,2,2],"right_children":[2,4,6,-1,-1,-1,-1],"split_conditions":[4.8586696E-1,-5.03415E-1,-4.8960976E-2,-7.932213E-3,-3.6821794E-3,6.2095877E-3,2.932413E-4],"split_indices":[0,0,10,0,0,0,0],"split_type":[0,0,0,0,0,0,0],"sum_hessian":[1.9529E4,1.3809E4,5.72E3,5.358E3,8.451E3,3.619E3,2.101E3],"tree_param":{"num_deleted":"0","num_feature":"17","num_nodes":"7","size_leaf_vector":"1"}},{"base_weights":[-2.56658E-1,-5.295139E-1,4.0059245E-1,-7.948342E-3,-3.696404E-3,6.243078E-3,2.9537737E-4],"categories":[],"categories_nodes":[],"categories_segments":[],"categories_sizes":[],"default_left":[0,0,0,0,0,0,0],"id":27,"left_children":[1,3,5,-1,-1,-1,-1],"loss_changes":[3.5083242E3,5.820149E2,4.6360034E2,0E0,0E0,0E0,0E0],"parents":[2147483647,0,0,1,1,2,2],"right_children":[2,4,6,-1,-1,-1,-1],"split_conditions":[4.8586696E-1,-5.03415E-1,-4.8960976E-2,-7.948342E-3,-3.696404E-3,6.243078E-3,2.9537737E-4],"split_indices":[0,0,10,0,0,0,0],"split_type":[0,0,0,0,0,0,0],"sum_hessian":[1.9563E4,1.3824E4,5.739E3,5.37E3,8.454E3,3.619E3,2.12E3],"tree_param":{"num_deleted":"0","num_feature":"17","num_nodes":"7","size_leaf_vector":"1"}},{"base_weights":[-2.60071E-1,-5.29557E-1,3.9474148E-1,-7.99309E-3,-3.6584097E-3,6.2206048E-3,1.7837709E-4],"categories":[],"categories_nodes":[],"categories_segments":[],"categories_sizes":[],"default_left":[0,0,0,0,0,0,0],"id":28,"left_children":[1,3,5,-1,-1,-1,-1],"loss_changes":[3.4299077E3,6.0333936E2,4.725999E2,0E0,0E0,0E0,0E0],"parents":[2147483647,0,0,1,1,2,2],"right_children":[2,4,6,-1,-1,-1,-1],"split_conditions":[4.8586696E-1,-5.03415E-1,-4.8960976E-2,-7.99309E-3,-3.6584097E-3,6.2206048E-3,1.7837709E-4],"split_indices":[0,0,10,0,0,0,0],"split_type":[0,0,0,0,0,0,0],"sum_hessian":[1.9437E4,1.377E4,5.667E3,5.369E3,8.401E3,3.572E3,2.095E3],"tree_param":{"num_deleted":"0","num_feature":"17","num_nodes":"7","size_leaf_vector":"1"}},{"base_weights":[-2.5610945E-1,-5.7968307E-1,2.958137E-1,-8.001886E-3,-4.2015533E-3,5.2835653E-3,-7.172464E-4],"categories":[],"categories_nodes":[],"categories_segments":[],"categories_sizes":[],"default_left":[0,0,0,0,0,0,0],"id":29,"left_children":[1,3,5,-1,-1,-1,-1],"loss_changes":[3.485855E3,4.281792E2,6.0153436E2,0E0,0E0,0E0,0E0],"parents":[2147483647,0,0,1,1,2,2],"right_children":[2,4,6,-1,-1,-1,-1],"split_conditions":[3.0599752E-1,-5.03415E-1,1.6E1,-8.001886E-3,-4.2015533E-3,5.2835653E-3,-7.172464E-4],"split_indices":[0,0,3,0,0,0,0],"split_type":[0,0,0,0,0,0,0],"sum_hessian":[1.9519E4,1.2305E4,7.214E3,5.353E3,6.952E3,4.454E3,2.76E3],"tree_param":{"num_deleted":"0","num_feature":"17","num_nodes":"7","size_leaf_vector":"1"}},{"base_weights":[-2.5873554E-1,-5.290702E-1,3.9000174E-1,-7.958032E-3,-3.6756746E-3,6.144911E-3,1.853647E-4],"categories":[],"categories_nodes":[],"categories_segments":[],"categories_sizes":[],"default_left":[0,0,0,0,0,0,0],"id":30,"left_children":[1,3,5,-1,-1,-1,-1],"loss_changes":[3.4229922E3,5.889341E2,4.659975E2,0E0,0E0,0E0,0E0],"parents":[2147483647,0,0,1,1,2,2],"right_children":[2,4,6,-1,-1,-1,-1],"split_conditions":[4.8586696E-1,-5.03415E-1,-4.8960976E-2,-7.958032E-3,-3.6756746E-3,6.144911E-3,1.853647E-4],"split_indices":[0,0,10,0,0,0,0],"split_type":[0,0,0,0,0,0,0],"sum_hessian":[1.9518E4,1.3777E4,5.741E3,5.366E3,8.411E3,3.616E3,2.125E3],"tree_param":{"num_deleted":"0","num_feature":"17","num_nodes":"7","size_leaf_vector":"1"}},{"base_weights":[-2.532053E-1,-5.2695173E-1,4.0410006E-1,-7.964765E-3,-3.6461272E-3,4.9119173E-3,-5.6408388E-3],"categories":[],"categories_nodes":[],"categories_segments":[],"categories_sizes":[],"default_left":[0,0,0,0,0,0,0],"id":31,"left_children":[1,3,5,-1,-1,-1,-1],"loss_changes":[3.522588E3,6.0009033E2,4.556046E2,0E0,0E0,0E0,0E0],"parents":[2147483647,0,0,1,1,2,2],"right_children":[2,4,6,-1,-1,-1,-1],"split_conditions":[4.8586696E-1,-5.03415E-1,2.6E1,-7.964765E-3,-3.6461272E-3,4.9119173E-3,-5.6408388E-3],"split_indices":[0,0,3,0,0,0,0],"split_type":[0,0,0,0,0,0,0],"sum_hessian":[1.9577E4,1.3821E4,5.756E3,5.364E3,8.457E3,5.303E3,4.53E2],"tree_param":{"num_deleted":"0","num_feature":"17","num_nodes":"7","size_leaf_vector":"1"}},{"base_weights":[-2.6060358E-1,-5.79821E-1,2.8725037E-1,-8.46607E-3,-4.505655E-3,5.269665E-3,-8.53213E-4],"categories":[],"categories_nodes":[],"categories_segments":[],"categories_sizes":[],"default_left":[0,0,0,0,0,0,0],"id":32,"left_children":[1,3,5,-1,-1,-1,-1],"loss_changes":[3.4016787E3,4.246548E2,6.2422046E2,0E0,0E0,0E0,0E0],"parents":[2147483647,0,0,1,1,2,2],"right_children":[2,4,6,-1,-1,-1,-1],"split_conditions":[3.0599752E-1,-6.8328446E-1,1.6E1,-8.46607E-3,-4.505655E-3,5.269665E-3,-8.53213E-4],"split_indices":[0,0,3,0,0,0,0],"split_type":[0,0,0,0,0,0,0],"sum_hessian":[1.9451E4,1.229E4,7.161E3,4.191E3,8.099E3,4.391E3,2.77E3],"tree_param":{"num_deleted":"0","num_feature":"17","num_nodes":"7","size_leaf_vector":"1"}},{"base_weights":[-2.593464E-1,-5.303807E-1,3.9740896E-1,-7.994034E-3,-3.6794562E-3,6.1823563E-3,3.2025555E-4],"categories":[],"categories_nodes":[],"categories_segments":[],"categories_sizes":[],"default_left":[0,0,0,0,0,0,0],"id":33,"left_children":[1,3,5,-1,-1,-1,-1],"loss_changes":[3.480498E3,6.002053E2,4.4849432E2,0E0,0E0,0E0,0E0],"parents":[2147483647,0,0,1,1,2,2],"right_children":[2,4,6,-1,-1,-1,-1],"split_conditions":[4.8586696E-1,-5.03415E-1,-4.8960976E-2,-7.994034E-3,-3.6794562E-3,6.1823563E-3,3.2025555E-4],"split_indices":[0,0,10,0,0,0,0],"split_type":[0,0,0,0,0,0,0],"sum_hessian":[1.9553E4,1.3841E4,5.712E3,5.381E3,8.46E3,3.599E3,2.113E3],"tree_param":{"num_deleted":"0","num_feature":"17","num_nodes":"7","size_leaf_vector":"1"}},{"base_weights":[-2.5837395E-1,-5.8097416E-1,2.8792486E-1,-8.469875E-3,-4.5231897E-3,7.5399806E-3,1.0262871E-3],"categories":[],"categories_nodes":[],"categories_segments":[],"categories_sizes":[],"default_left":[0,0,0,0,0,0,0],"id":34,"left_children":[1,3,5,-1,-1,-1,-1],"loss_changes":[3.4357224E3,4.2040088E2,6.1844574E2,0E0,0E0,0E0,0E0],"parents":[2147483647,0,0,1,1,2,2],"right_children":[2,4,6,-1,-1,-1,-1],"split_conditions":[3.0599752E-1,-6.8328446E-1,-1.0843943E0,-8.469875E-3,-4.5231897E-3,7.5399806E-3,1.0262871E-3],"split_indices":[0,0,12,0,0,0,0],"split_type":[0,0,0,0,0,0,0],"sum_hessian":[1.9495E4,1.2257E4,7.238E3,4.176E3,8.081E3,2.091E3,5.147E3],"tree_param":{"num_deleted":"0","num_feature":"17","num_nodes":"7","size_leaf_vector":"1"}},{"base_weights":[-2.5751793E-1,-5.8054614E-1,2.9209623E-1,-7.9960665E-3,-4.2050695E-3,5.272127E-3,-7.201489E-4],"categories":[],"categories_nodes":[],"categories_segments":[],"categories_sizes":[],"default_left":[0,0,0,0,0,0,0],"id":35,"left_children":[1,3,5,-1,-1,-1,-1],"loss_changes":[3.489211E3,4.2914893E2,6.077825E2,0E0,0E0,0E0,0E0],"parents":[2147483647,0,0,1,1,2,2],"right_children":[2,4,6,-1,-1,-1,-1],"split_conditions":[3.0599752E-1,-5.03415E-1,1.6E1,-7.9960665E-3,-4.2050695E-3,5.272127E-3,-7.201489E-4],"split_indices":[0,0,3,0,0,0,0],"split_type":[0,0,0,0,0,0,0],"sum_hessian":[1.9653E4,1.2378E4,7.275E3,5.415E3,6.963E3,4.456E3,2.819E3],"tree_param":{"num_deleted":"0","num_feature":"17","num_nodes":"7","size_leaf_vector":"1"}},{"base_weights":[-2.577446E-1,-5.5418384E-1,3.462733E-1,-8.012542E-3,-3.913554E-3,7.923005E-3,1.6034589E-3],"categories":[],"categories_nodes":[],"categories_segments":[],"categories_sizes":[],"default_left":[0,0,0,0,0,0,0],"id":36,"left_children":[1,3,5,-1,-1,-1,-1],"loss_changes":[3.5026655E3,5.2310767E2,5.291478E2,0E0,0E0,0E0,0E0],"parents":[2147483647,0,0,1,1,2,2],"right_children":[2,4,6,-1,-1,-1,-1],"split_conditions":[3.9593226E-1,-5.03415E-1,-1.0843943E0,-8.012542E-3,-3.913554E-3,7.923005E-3,1.6034589E-3],"split_indices":[0,0,12,0,0,0,0],"split_type":[0,0,0,0,0,0,0],"sum_hessian":[1.9562E4,1.3122E4,6.44E3,5.39E3,7.732E3,1.93E3,4.51E3],"tree_param":{"num_deleted":"0","num_feature":"17","num_nodes":"7","size_leaf_vector":"1"}},{"base_weights":[-2.573913E-1,-5.794847E-1,2.9411766E-1,-8.424269E-3,-4.5229625E-3,7.5208666E-3,1.1011353E-3],"categories":[],"categories_nodes":[],"categories_segments":[],"categories_sizes":[],"default_left":[0,0,0,0,0,0,0],"id":37,"left_children":[1,3,5,-1,-1,-1,-1],"loss_changes":[3.472811E3,4.1373438E2,6.0106934E2,0E0,0E0,0E0,0E0],"parents":[2147483647,0,0,1,1,2,2],"right_children":[2,4,6,-1,-1,-1,-1],"split_conditions":[3.0599752E-1,-6.8328446E-1,-1.0843943E0,-8.424269E-3,-4.5229625E-3,7.5208666E-3,1.1011353E-3],"split_indices":[0,0,12,0,0,0,0],"split_type":[0,0,0,0,0,0,0],"sum_hessian":[1.955E4,1.2342E4,7.208E3,4.207E3,8.135E3,2.099E3,5.109E3],"tree_param":{"num_deleted":"0","num_feature":"17","num_nodes":"7","size_leaf_vector":"1"}},{"base_weights":[-2.571224E-1,-5.754976E-1,2.8986514E-1,-7.9940185E-3,-4.1564554E-3,7.5229257E-3,1.0519185E-3],"categories":[],"categories_nodes":[],"categories_segments":[],"categories_sizes":[],"default_left":[0,0,0,0,0,0,0],"id":38,"left_children":[1,3,5,-1,-1,-1,-1],"loss_changes":[3.404754E3,4.376609E2,6.0778204E2,0E0,0E0,0E0,0E0],"parents":[2147483647,0,0,1,1,2,2],"right_children":[2,4,6,-1,-1,-1,-1],"split_conditions":[3.0599752E-1,-5.03415E-1,-1.0843943E0,-7.9940185E-3,-4.1564554E-3,7.5229257E-3,1.0519185E-3],"split_indices":[0,0,12,0,0,0,0],"split_type":[0,0,0,0,0,0,0],"sum_hessian":[1.9551E4,1.2358E4,7.193E3,5.333E3,7.025E3,2.085E3,5.108E3],"tree_param":{"num_deleted":"0","num_feature":"17","num_nodes":"7","size_leaf_vector":"1"}},{"base_weights":[-2.5414166E-1,-5.255814E-1,3.9689735E-1,-7.965689E-3,-3.6338938E-3,6.2216E-3,2.1041666E-4],"categories":[],"categories_nodes":[],"categories_segments":[],"categories_sizes":[],"default_left":[0,0,0,0,0,0,0],"id":39,"left_children":[1,3,5,-1,-1,-1,-1],"loss_changes":[3.4454678E3,6.0020337E2,4.7270935E2,0E0,0E0,0E0,0E0],"parents":[2147483647,0,0,1,1,2,2],"right_children":[2,4,6,-1,-1,-1,-1],"split_conditions":[4.8586696E-1,-5.03415E-1,-4.8960976E-2,-7.965689E-3,-3.6338938E-3,6.2216E-3,2.1041666E-4],"split_indices":[0,0,10,0,0,0,0],"split_type":[0,0,0,0,0,0,0],"sum_hessian":[1.9497E4,1.376E4,5.737E3,5.319E3,8.441E3,3.625E3,2.112E3],"tree_param":{"num_deleted":"0","num_feature":"17","num_nodes":"7","size_leaf_vector":"1"}},{"base_weights":[-2.5750524E-1,-5.55776E-1,3.488444E-1,-7.9840245E-3,-3.980129E-3,7.992806E-3,1.5909575E-3],"categories":[],"categories_nodes":[],"categories_segments":[],"categories_sizes":[],"default_left":[0,0,0,0,0,0,0],"id":40,"left_children":[1,3,5,-1,-1,-1,-1],"loss_changes":[3.5362844E3,4.974431E2,5.458361E2,0E0,0E0,0E0,0E0],"parents":[2147483647,0,0,1,1,2,2],"right_children":[2,4,6,-1,-1,-1,-1],"split_conditions":[3.9593226E-1,-5.03415E-1,-1.0843943E0,-7.9840245E-3,-3.980129E-3,7.992806E-3,1.5909575E-3],"split_indices":[0,0,12,0,0,0,0],"split_type":[0,0,0,0,0,0,0],"sum_hessian":[1.9553E4,1.3106E4,6.447E3,5.346E3,7.76E3,1.946E3,4.501E3],"tree_param":{"num_deleted":"0","num_feature":"17","num_nodes":"7","size_leaf_vector":"1"}},{"base_weights":[-2.5852114E-1,-5.5034274E-1,3.3654293E-1,-7.942827E-3,-3.9058542E-3,7.907996E-3,1.4748282E-3],"categories":[],"categories_nodes":[],"categories_segments":[],"categories_sizes":[],"default_left":[0,0,0,0,0,0,0],"id":41,"left_children":[1,3,5,-1,-1,-1,-1],"loss_changes":[3.398207E3,5.0718237E2,5.4765894E2,0E0,0E0,0E0,0E0],"parents":[2147483647,0,0,1,1,2,2],"right_children":[2,4,6,-1,-1,-1,-1],"split_conditions":[3.9593226E-1,-5.03415E-1,-1.0843943E0,-7.942827E-3,-3.9058542E-3,7.907996E-3,1.4748282E-3],"split_indices":[0,0,12,0,0,0,0],"split_type":[0,0,0,0,0,0,0],"sum_hessian":[1.9569E4,1.313E4,6.439E3,5.375E3,7.755E3,1.926E3,4.513E3],"tree_param":{"num_deleted":"0","num_feature":"17","num_nodes":"7","size_leaf_vector":"1"}},{"base_weights":[-2.5909206E-1,-5.8180785E-1,2.915047E-1,-8.48961E-3,-4.530934E-3,5.2844076E-3,-8.1062905E-4],"categories":[],"categories_nodes":[],"categories_segments":[],"categories_sizes":[],"default_left":[0,0,0,0,0,0,0],"id":42,"left_children":[1,3,5,-1,-1,-1,-1],"loss_changes":[3.463994E3,4.2361328E2,6.2054834E2,0E0,0E0,0E0,0E0],"parents":[2147483647,0,0,1,1,2,2],"right_children":[2,4,6,-1,-1,-1,-1],"split_conditions":[3.0599752E-1,-6.8328446E-1,1.6E1,-8.48961E-3,-4.530934E-3,5.2844076E-3,-8.1062905E-4],"split_indices":[0,0,3,0,0,0,0],"split_type":[0,0,0,0,0,0,0],"sum_hessian":[1.9495E4,1.2291E4,7.204E3,4.177E3,8.114E3,4.438E3,2.766E3],"tree_param":{"num_deleted":"0","num_feature":"17","num_nodes":"7","size_leaf_vector":"1"}},{"base_weights":[-2.5730965E-1,-5.770854E-1,2.8965995E-1,-8.435165E-3,-4.4877855E-3,7.531549E-3,1.041013E-3],"categories":[],"categories_nodes":[],"categories_segments":[],"categories_sizes":[],"default_left":[0,0,0,0,0,0,0],"id":43,"left_children":[1,3,5,-1,-1,-1,-1],"loss_changes":[3.4157705E3,4.2222168E2,6.130866E2,0E0,0E0,0E0,0E0],"parents":[2147483647,0,0,1,1,2,2],"right_children":[2,4,6,-1,-1,-1,-1],"split_conditions":[3.0599752E-1,-6.8328446E-1,-1.0843943E0,-8.435165E-3,-4.4877855E-3,7.531549E-3,1.041013E-3],"split_indices":[0,0,12,0,0,0,0],"split_type":[0,0,0,0,0,0,0],"sum_hessian":[1.9529E4,1.2324E4,7.205E3,4.186E3,8.138E3,2.092E3,5.113E3],"tree_param":{"num_deleted":"0","num_feature":"17","num_nodes":"7","size_leaf_vector":"1"}},{"base_weights":[-2.545166E-1,-5.49328E-1,3.447152E-1,-7.932213E-3,-3.897467E-3,8.003476E-3,1.5521258E-3],"categories":[],"categories_nodes":[],"categories_segments":[],"categories_sizes":[],"default_left":[0,0,0,0,0,0,0],"id":44,"left_children":[1,3,5,-1,-1,-1,-1],"loss_changes":[3.4517676E3,5.052224E2,5.510692E2,0E0,0E0,0E0,0E0],"parents":[2147483647,0,0,1,1,2,2],"right_children":[2,4,6,-1,-1,-1,-1],"split_conditions":[3.9593226E-1,-5.03415E-1,-1.0843943E0,-7.932213E-3,-3.897467E-3,8.003476E-3,1.5521258E-3],"split_indices":[0,0,12,0,0,0,0],"split_type":[0,0,0,0,0,0,0],"sum_hessian":[1.9539E4,1.3096E4,6.443E3,5.358E3,7.738E3,1.927E3,4.516E3],"tree_param":{"num_deleted":"0","num_feature":"17","num_nodes":"7","size_leaf_vector":"1"}},{"base_weights":[-2.5839028E-1,-5.8222723E-1,2.9351723E-1,-8.45788E-3,-4.5498954E-3,7.570226E-3,1.0662641E-3],"categories":[],"categories_nodes":[],"categories_segments":[],"categories_sizes":[],"default_left":[0,0,0,0,0,0,0],"id":45,"left_children":[1,3,5,-1,-1,-1,-1],"loss_changes":[3.504142E3,4.153955E2,6.213652E2,0E0,0E0,0E0,0E0],"parents":[2147483647,0,0,1,1,2,2],"right_children":[2,4,6,-1,-1,-1,-1],"split_conditions":[3.0599752E-1,-6.8328446E-1,-1.0843943E0,-8.45788E-3,-4.5498954E-3,7.570226E-3,1.0662641E-3],"split_indices":[0,0,12,0,0,0,0],"split_type":[0,0,0,0,0,0,0],"sum_hessian":[1.9606E4,1.2356E4,7.25E3,4.207E3,8.149E3,2.116E3,5.134E3],"tree_param":{"num_deleted":"0","num_feature":"17","num_nodes":"7","size_leaf_vector":"1"}},{"base_weights":[-2.56447E-1,-5.814483E-1,2.941825E-1,-8.013192E-3,-4.204922E-3,7.571394E-3,1.095653E-3],"categories":[],"categories_nodes":[],"categories_segments":[],"categories_sizes":[],"default_left":[0,0,0,0,0,0,0],"id":46,"left_children":[1,3,5,-1,-1,-1,-1],"loss_changes":[3.497503E3,4.300874E2,6.1354285E2,0E0,0E0,0E0,0E0],"parents":[2147483647,0,0,1,1,2,2],"right_children":[2,4,6,-1,-1,-1,-1],"split_conditions":[3.0599752E-1,-5.03415E-1,-1.0843943E0,-8.013192E-3,-4.204922E-3,7.571394E-3,1.095653E-3],"split_indices":[0,0,12,0,0,0,0],"split_type":[0,0,0,0,0,0,0],"sum_hessian":[1.9544E4,1.229E4,7.254E3,5.382E3,6.908E3,2.101E3,5.153E3],"tree_param":{"num_deleted":"0","num_feature":"17","num_nodes":"7","size_leaf_vector":"1"}},{"base_weights":[-2.575626E-1,-5.793644E-1,2.9242676E-1,-7.967338E-3,-4.232601E-3,7.5786225E-3,1.0737998E-3],"categories":[],"categories_nodes":[],"categories_segments":[],"categories_sizes":[],"default_left":[0,0,0,0,0,0,0],"id":47,"left_children":[1,3,5,-1,-1,-1,-1],"loss_changes":[3.4694873E3,4.1526855E2,6.16693E2,0E0,0E0,0E0,0E0],"parents":[2147483647,0,0,1,1,2,2],"right_children":[2,4,6,-1,-1,-1,-1],"split_conditions":[3.0599752E-1,-5.03415E-1,-1.0843943E0,-7.967338E-3,-4.232601E-3,7.5786225E-3,1.0737998E-3],"split_indices":[0,0,12,0,0,0,0],"split_type":[0,0,0,0,0,0,0],"sum_hessian":[1.9603E4,1.2367E4,7.236E3,5.361E3,7.006E3,2.091E3,5.145E3],"tree_param":{"num_deleted":"0","num_feature":"17","num_nodes":"7","size_leaf_vector":"1"}},{"base_weights":[-2.5619325E-1,-5.276083E-1,3.9542997E-1,-7.924615E-3,-3.6884039E-3,6.1886976E-3,2.6165802E-4],"categories":[],"categories_nodes":[],"categories_segments":[],"categories_sizes":[],"default_left":[0,0,0,0,0,0,0],"id":48,"left_children":[1,3,5,-1,-1,-1,-1],"loss_changes":[3.4482458E3,5.745508E2,4.6037128E2,0E0,0E0,0E0,0E0],"parents":[2147483647,0,0,1,1,2,2],"right_children":[2,4,6,-1,-1,-1,-1],"split_conditions":[4.8586696E-1,-5.03415E-1,-4.8960976E-2,-7.924615E-3,-3.6884039E-3,6.1886976E-3,2.6165802E-4],"split_indices":[0,0,10,0,0,0,0],"split_type":[0,0,0,0,0,0,0],"sum_hessian":[1.9497E4,1.3764E4,5.733E3,5.33E3,8.434E3,3.61E3,2.123E3],"tree_param":{"num_deleted":"0","num_feature":"17","num_nodes":"7","size_leaf_vector":"1"}},{"base_weights":[-2.5740296E-1,-5.2958196E-1,3.996857E-1,-7.940156E-3,-3.7086215E-3,4.8626796E-3,-5.8137695E-3],"categories":[],"categories_nodes":[],"categories_segments":[],"categories_sizes":[],"default_left":[0,0,0,0,0,0,0],"id":49,"left_children":[1,3,5,-1,-1,-1,-1],"loss_changes":[3.4969705E3,5.760625E2,4.5672028E2,0E0,0E0,0E0,0E0],"parents":[2147483647,0,0,1,1,2,2],"right_children":[2,4,6,-1,-1,-1,-1],"split_conditions":[4.8586696E-1,-5.03415E-1,2.6E1,-7.940156E-3,-3.7086215E-3,4.8626796E-3,-5.8137695E-3],"split_indices":[0,0,3,0,0,0,0],"split_type":[0,0,0,0,0,0,0],"sum_hessian":[1.9553E4,1.3826E4,5.727E3,5.359E3,8.467E3,5.284E3,4.43E2],"tree_param":{"num_deleted":"0","num_feature":"17","num_nodes":"7","size_leaf_vector":"1"}},{"base_weights":[-2.6000512E-1,-5.809848E-1,2.8917834E-1,-8.439398E-3,-4.5323856E-3,7.4664615E-3,1.0337647E-3],"categories":[],"categories_nodes":[],"categories_segments":[],"categories_sizes":[],"default_left":[0,0,0,0,0,0,0],"id":50,"left_children":[1,3,5,-1,-1,-1,-1],"loss_changes":[3.448854E3,4.1571533E2,6.0684503E2,0E0,0E0,0E0,0E0],"parents":[2147483647,0,0,1,1,2,2],"right_children":[2,4,6,-1,-1,-1,-1],"split_conditions":[3.0599752E-1,-6.8328446E-1,-1.0843943E0,-8.439398E-3,-4.5323856E-3,7.4664615E-3,1.0337647E-3],"split_indices":[0,0,12,0,0,0,0],"split_type":[0,0,0,0,0,0,0],"sum_hessian":[1.9565E4,1.2348E4,7.217E3,4.221E3,8.127E3,2.117E3,5.1E3],"tree_param":{"num_deleted":"0","num_feature":"17","num_nodes":"7","size_leaf_vector":"1"}},{"base_weights":[-2.5902718E-1,-5.7869804E-1,2.8259066E-1,-8.465679E-3,-4.4812243E-3,7.4456357E-3,9.6303236E-4],"categories":[],"categories_nodes":[],"categories_segments":[],"categories_sizes":[],"default_left":[0,0,0,0,0,0,0],"id":51,"left_children":[1,3,5,-1,-1,-1,-1],"loss_changes":[3.370852E3,4.2892236E2,6.1507635E2,0E0,0E0,0E0,0E0],"parents":[2147483647,0,0,1,1,2,2],"right_children":[2,4,6,-1,-1,-1,-1],"split_conditions":[3.0599752E-1,-6.8328446E-1,-1.0843943E0,-8.465679E-3,-4.4812243E-3,7.4456357E-3,9.6303236E-4],"split_indices":[0,0,12,0,0,0,0],"split_type":[0,0,0,0,0,0,0],"sum_hessian":[1.9469E4,1.2243E4,7.226E3,4.19E3,8.053E3,2.108E3,5.118E3],"tree_param":{"num_deleted":"0","num_feature":"17","num_nodes":"7","size_leaf_vector":"1"}},{"base_weights":[-2.5784433E-1,-5.8038104E-1,2.8737837E-1,-8.50727E-3,-4.4782194E-3,7.6072337E-3,9.823234E-4],"categories":[],"categories_nodes":[],"categories_segments":[],"categories_sizes":[],"default_left":[0,0,0,0,0,0,0],"id":52,"left_children":[1,3,5,-1,-1,-1,-1],"loss_changes":[3.452372E3,4.425996E2,6.4622046E2,0E0,0E0,0E0,0E0],"parents":[2147483647,0,0,1,1,2,2],"right_children":[2,4,6,-1,-1,-1,-1],"split_conditions":[3.0599752E-1,-6.8328446E-1,-1.0843943E0,-8.50727E-3,-4.4782194E-3,7.6072337E-3,9.823234E-4],"split_indices":[0,0,12,0,0,0,0],"split_type":[0,0,0,0,0,0,0],"sum_hessian":[1.9632E4,1.2335E4,7.297E3,4.236E3,8.099E3,2.115E3,5.182E3],"tree_param":{"num_deleted":"0","num_feature":"17","num_nodes":"7","size_leaf_vector":"1"}},{"base_weights":[-2.6184514E-1,-5.8503735E-1,2.8821987E-1,-8.520596E-3,-4.56109E-3,5.236785E-3,-8.2107907E-4],"categories":[],"categories_nodes":[],"categories_segments":[],"categories_sizes":[],"default_left":[0,0,0,0,0,0,0],"id":53,"left_children":[1,3,5,-1,-1,-1,-1],"loss_changes":[3.4782012E3,4.2526172E2,6.161336E2,0E0,0E0,0E0,0E0],"parents":[2147483647,0,0,1,1,2,2],"right_children":[2,4,6,-1,-1,-1,-1],"split_conditions":[3.0599752E-1,-6.8328446E-1,1.6E1,-8.520596E-3,-4.56109E-3,5.236785E-3,-8.2107907E-4],"split_indices":[0,0,3,0,0,0,0],"split_type":[0,0,0,0,0,0,0],"sum_hessian":[1.9565E4,1.2324E4,7.241E3,4.195E3,8.129E3,4.461E3,2.78E3],"tree_param":{"num_deleted":"0","num_feature":"17","num_nodes":"7","size_leaf_vector":"1"}},{"base_weights":[-2.5481975E-1,-5.7843536E-1,2.9806095E-1,-8.027915E-3,-4.166991E-3,7.586989E-3,1.1257333E-3],"categories":[],"categories_nodes":[],"categories_segments":[],"categories_sizes":[],"default_left":[0,0,0,0,0,0,0],"id":54,"left_children":[1,3,5,-1,-1,-1,-1],"loss_changes":[3.4987969E3,4.4275E2,6.104823E2,0E0,0E0,0E0,0E0],"parents":[2147483647,0,0,1,1,2,2],"right_children":[2,4,6,-1,-1,-1,-1],"split_conditions":[3.0599752E-1,-5.03415E-1,-1.0843943E0,-8.027915E-3,-4.166991E-3,7.586989E-3,1.1257333E-3],"split_indices":[0,0,12,0,0,0,0],"split_type":[0,0,0,0,0,0,0],"sum_hessian":[1.9555E4,1.2335E4,7.22E3,5.352E3,6.983E3,2.106E3,5.114E3],"tree_param":{"num_deleted":"0","num_feature":"17","num_nodes":"7","size_leaf_vector":"1"}},{"base_weights":[-2.5859952E-1,-5.819925E-1,2.9183957E-1,-8.481318E-3,-4.520524E-3,7.5546657E-3,1.047685E-3],"categories":[],"categories_nodes":[],"categories_segments":[],"categories_sizes":[],"default_left":[0,0,0,0,0,0,0],"id":55,"left_children":[1,3,5,-1,-1,-1,-1],"loss_changes":[3.477567E3,4.263369E2,6.2037085E2,0E0,0E0,0E0,0E0],"parents":[2147483647,0,0,1,1,2,2],"right_children":[2,4,6,-1,-1,-1,-1],"split_conditions":[3.0599752E-1,-6.8328446E-1,-1.0843943E0,-8.481318E-3,-4.520524E-3,7.5546657E-3,1.047685E-3],"split_indices":[0,0,12,0,0,0,0],"split_type":[0,0,0,0,0,0,0],"sum_hessian":[1.9536E4,1.2306E4,7.23E3,4.218E3,8.088E3,2.111E3,5.119E3],"tree_param":{"num_deleted":"0","num_feature":"17","num_nodes":"7","size_leaf_vector":"1"}},{"base_weights":[-2.5629735E-1,-5.7865626E-1,2.9124066E-1,-7.981197E-3,-4.183389E-3,7.535226E-3,1.0702896E-3],"categories":[],"categories_nodes":[],"categories_segments":[],"categories_sizes":[],"default_left":[0,0,0,0,0,0,0],"id":56,"left_children":[1,3,5,-1,-1,-1,-1],"loss_changes":[3.4474717E3,4.2774805E2,6.099129E2,0E0,0E0,0E0,0E0],"parents":[2147483647,0,0,1,1,2,2],"right_children":[2,4,6,-1,-1,-1,-1],"split_conditions":[3.0599752E-1,-5.03415E-1,-1.0843943E0,-7.981197E-3,-4.183389E-3,7.535226E-3,1.0702896E-3],"split_indices":[0,0,12,0,0,0,0],"split_type":[0,0,0,0,0,0,0],"sum_hessian":[1.9532E4,1.2294E4,7.238E3,5.377E3,6.917E3,2.095E3,5.143E3],"tree_param":{"num_deleted":"0","num_feature":"17","num_nodes":"7","size_leaf_vector":"1"}},{"base_weights":[-2.55921E-1,-5.782976E-1,2.9252452E-1,-8.485546E-3,-4.4818516E-3,7.6403636E-3,1.0568626E-3],"categories":[],"categories_nodes":[],"categories_segments":[],"categories_sizes":[],"default_left":[0,0,0,0,0,0,0],"id":57,"left_children":[1,3,5,-1,-1,-1,-1],"loss_changes":[3.4563806E3,4.3378418E2,6.3083887E2,0E0,0E0,0E0,0E0],"parents":[2147483647,0,0,1,1,2,2],"right_children":[2,4,6,-1,-1,-1,-1],"split_conditions":[3.0599752E-1,-6.8328446E-1,-1.0843943E0,-8.485546E-3,-4.4818516E-3,7.6403636E-3,1.0568626E-3],"split_indices":[0,0,12,0,0,0,0],"split_type":[0,0,0,0,0,0,0],"sum_hessian":[1.9549E4,1.2312E4,7.237E3,4.179E3,8.133E3,2.086E3,5.151E3],"tree_param":{"num_deleted":"0","num_feature":"17","num_nodes":"7","size_leaf_vector":"1"}},{"base_weights":[-2.5796863E-1,-5.2695477E-1,3.9781538E-1,-7.957349E-3,-3.6348505E-3,6.183788E-3,2.9050812E-4],"categories":[],"categories_nodes":[],"categories_segments":[],"categories_sizes":[],"default_left":[0,0,0,0,0,0,0],"id":58,"left_children":[1,3,5,-1,-1,-1,-1],"loss_changes":[3.442207E3,6.0317725E2,4.49198E2,0E0,0E0,0E0,0E0],"parents":[2147483647,0,0,1,1,2,2],"right_children":[2,4,6,-1,-1,-1,-1],"split_conditions":[4.8586696E-1,-5.03415E-1,-4.8960976E-2,-7.957349E-3,-3.6348505E-3,6.183788E-3,2.9050812E-4],"split_indices":[0,0,10,0,0,0,0],"split_type":[0,0,0,0,0,0,0],"sum_hessian":[1.9514E4,1.3838E4,5.676E3,5.402E3,8.436E3,3.59E3,2.086E3],"tree_param":{"num_deleted":"0","num_feature":"17","num_nodes":"7","size_leaf_vector":"1"}},{"base_weights":[-2.556949E-1,-5.787852E-1,2.9733482E-1,-8.464762E-3,-4.492891E-3,7.597856E-3,1.1138688E-3],"categories":[],"categories_nodes":[],"categories_segments":[],"categories_sizes":[],"default_left":[0,0,0,0,0,0,0],"id":59,"left_children":[1,3,5,-1,-1,-1,-1],"loss_changes":[3.4904846E3,4.2829443E2,6.1302203E2,0E0,0E0,0E0,0E0],"parents":[2147483647,0,0,1,1,2,2],"right_children":[2,4,6,-1,-1,-1,-1],"split_conditions":[3.0599752E-1,-6.8328446E-1,-1.0843943E0,-8.464762E-3,-4.492891E-3,7.597856E-3,1.1138688E-3],"split_indices":[0,0,12,0,0,0,0],"split_type":[0,0,0,0,0,0,0],"sum_hessian":[1.9535E4,1.2331E4,7.204E3,4.2E3,8.131E3,2.099E3,5.105E3],"tree_param":{"num_deleted":"0","num_feature":"17","num_nodes":"7","size_leaf_vector":"1"}},{"base_weights":[-2.590515E-1,-5.8700585E-1,2.9810074E-1,-8.485333E-3,-4.590682E-3,7.6201316E-3,1.104319E-3],"categories":[],"categories_nodes":[],"categories_segments":[],"categories_sizes":[],"default_left":[0,0,0,0,0,0,0],"id":60,"left_children":[1,3,5,-1,-1,-1,-1],"loss_changes":[3.5831487E3,4.139541E2,6.259295E2,0E0,0E0,0E0,0E0],"parents":[2147483647,0,0,1,1,2,2],"right_children":[2,4,6,-1,-1,-1,-1],"split_conditions":[3.0599752E-1,-6.8328446E-1,-1.0843943E0,-8.485333E-3,-4.590682E-3,7.6201316E-3,1.104319E-3],"split_indices":[0,0,12,0,0,0,0],"split_type":[0,0,0,0,0,0,0],"sum_hessian":[1.961E4,1.2344E4,7.266E3,4.241E3,8.103E3,2.126E3,5.14E3],"tree_param":{"num_deleted":"0","num_feature":"17","num_nodes":"7","size_leaf_vector":"1"}},{"base_weights":[-2.5485772E-1,-5.510204E-1,3.4848955E-1,-7.982804E-3,-3.8864263E-3,7.976437E-3,1.6034958E-3],"categories":[],"categories_nodes":[],"categories_segments":[],"categories_sizes":[],"default_left":[0,0,0,0,0,0,0],"id":61,"left_children":[1,3,5,-1,-1,-1,-1],"loss_changes":[3.485328E3,5.2053564E2,5.376406E2,0E0,0E0,0E0,0E0],"parents":[2147483647,0,0,1,1,2,2],"right_children":[2,4,6,-1,-1,-1,-1],"split_conditions":[3.9593226E-1,-5.03415E-1,-1.0843943E0,-7.982804E-3,-3.8864263E-3,7.976437E-3,1.6034958E-3],"split_indices":[0,0,12,0,0,0,0],"split_type":[0,0,0,0,0,0,0],"sum_hessian":[1.9505E4,1.3083E4,6.422E3,5.362E3,7.721E3,1.931E3,4.491E3],"tree_param":{"num_deleted":"0","num_feature":"17","num_nodes":"7","size_leaf_vector":"1"}},{"base_weights":[-2.5658906E-1,-5.786051E-1,2.936111E-1,-8.491658E-3,-4.4613956E-3,7.559241E-3,1.0954661E-3],"categories":[],"categories_nodes":[],"categories_segments":[],"categories_sizes":[],"default_left":[0,0,0,0,0,0,0],"id":62,"left_children":[1,3,5,-1,-1,-1,-1],"loss_changes":[3.4552334E3,4.4144775E2,6.063201E2,0E0,0E0,0E0,0E0],"parents":[2147483647,0,0,1,1,2,2],"right_children":[2,4,6,-1,-1,-1,-1],"split_conditions":[3.0599752E-1,-6.8328446E-1,-1.0843943E0,-8.491658E-3,-4.4613956E-3,7.559241E-3,1.0954661E-3],"split_indices":[0,0,12,0,0,0,0],"split_type":[0,0,0,0,0,0,0],"sum_hessian":[1.9502E4,1.2302E4,7.2E3,4.22E3,8.082E3,2.083E3,5.117E3],"tree_param":{"num_deleted":"0","num_feature":"17","num_nodes":"7","size_leaf_vector":"1"}},{"base_weights":[-2.556754E-1,-5.777579E-1,2.9697308E-1,-8.448062E-3,-4.4895797E-3,7.5786505E-3,1.1341185E-3],"categories":[],"categories_nodes":[],"categories_segments":[],"categories_sizes":[],"default_left":[0,0,0,0,0,0,0],"id":63,"left_children":[1,3,5,-1,-1,-1,-1],"loss_changes":[3.4656294E3,4.2399512E2,6.002863E2,0E0,0E0,0E0,0E0],"parents":[2147483647,0,0,1,1,2,2],"right_children":[2,4,6,-1,-1,-1,-1],"split_conditions":[3.0599752E-1,-6.8328446E-1,-1.0843943E0,-8.448062E-3,-4.4895797E-3,7.5786505E-3,1.1341185E-3],"split_indices":[0,0,12,0,0,0,0],"split_type":[0,0,0,0,0,0,0],"sum_hessian":[1.947E4,1.2301E4,7.169E3,4.182E3,8.119E3,2.075E3,5.094E3],"tree_param":{"num_deleted":"0","num_feature":"17","num_nodes":"7","size_leaf_vector":"1"}},{"base_weights":[-2.594788E-1,-5.847863E-1,2.9465395E-1,-7.985698E-3,-4.2873644E-3,5.262931E-3,-6.4115546E-4],"categories":[],"categories_nodes":[],"categories_segments":[],"categories_sizes":[],"default_left":[0,0,0,0,0,0,0],"id":64,"left_children":[1,3,5,-1,-1,-1,-1],"loss_changes":[3.5277578E3,4.0693506E2,5.8702386E2,0E0,0E0,0E0,0E0],"parents":[2147483647,0,0,1,1,2,2],"right_children":[2,4,6,-1,-1,-1,-1],"split_conditions":[3.0599752E-1,-5.03415E-1,1.6E1,-7.985698E-3,-4.2873644E-3,5.262931E-3,-6.4115546E-4],"split_indices":[0,0,3,0,0,0,0],"split_type":[0,0,0,0,0,0,0],"sum_hessian":[1.957E4,1.2331E4,7.239E3,5.398E3,6.933E3,4.435E3,2.804E3],"tree_param":{"num_deleted":"0","num_feature":"17","num_nodes":"7","size_leaf_vector":"1"}},{"base_weights":[-2.6054794E-1,-5.8502793E-1,2.912648E-1,-8.046465E-3,-4.2674015E-3,7.5749997E-3,1.0402254E-3],"categories":[],"categories_nodes":[],"categories_segments":[],"categories_sizes":[],"default_left":[0,0,0,0,0,0,0],"id":65,"left_children":[1,3,5,-1,-1,-1,-1],"loss_changes":[3.5096025E3,4.2455127E2,6.2685223E2,0E0,0E0,0E0,0E0],"parents":[2147483647,0,0,1,1,2,2],"right_children":[2,4,6,-1,-1,-1,-1],"split_conditions":[3.0599752E-1,-5.03415E-1,-1.0843943E0,-8.046465E-3,-4.2674015E-3,7.5749997E-3,1.0402254E-3],"split_indices":[0,0,12,0,0,0,0],"split_type":[0,0,0,0,0,0,0],"sum_hessian":[1.9601E4,1.2343E4,7.258E3,5.361E3,6.982E3,2.112E3,5.146E3],"tree_param":{"num_deleted":"0","num_feature":"17","num_nodes":"7","size_leaf_vector":"1"}},{"base_weights":[-2.5474975E-1,-5.765904E-1,2.9754475E-1,-8.447707E-3,-4.4600787E-3,7.588132E-3,1.1023949E-3],"categories":[],"categories_nodes":[],"categories_segments":[],"categories_sizes":[],"default_left":[0,0,0,0,0,0,0],"id":66,"left_children":[1,3,5,-1,-1,-1,-1],"loss_changes":[3.4803608E3,4.3391016E2,6.1626886E2,0E0,0E0,0E0,0E0],"parents":[2147483647,0,0,1,1,2,2],"right_children":[2,4,6,-1,-1,-1,-1],"split_conditions":[3.0599752E-1,-6.8328446E-1,-1.0843943E0,-8.447707E-3,-4.4600787E-3,7.588132E-3,1.1023949E-3],"split_indices":[0,0,12,0,0,0,0],"split_type":[0,0,0,0,0,0,0],"sum_hessian":[1.958E4,1.2371E4,7.209E3,4.23E3,8.141E3,2.115E3,5.094E3],"tree_param":{"num_deleted":"0","num_feature":"17","num_nodes":"7","size_leaf_vector":"1"}},{"base_weights":[-2.591265E-1,-5.8062416E-1,2.8822473E-1,-8.456203E-3,-4.513722E-3,5.2601798E-3,-8.422718E-4],"categories":[],"categories_nodes":[],"categories_segments":[],"categories_sizes":[],"default_left":[0,0,0,0,0,0,0],"id":67,"left_children":[1,3,5,-1,-1,-1,-1],"loss_changes":[3.4369119E3,4.2222412E2,6.2465015E2,0E0,0E0,0E0,0E0],"parents":[2147483647,0,0,1,1,2,2],"right_children":[2,4,6,-1,-1,-1,-1],"split_conditions":[3.0599752E-1,-6.8328446E-1,1.6E1,-8.456203E-3,-4.513722E-3,5.2601798E-3,-8.422718E-4],"split_indices":[0,0,3,0,0,0,0],"split_type":[0,0,0,0,0,0,0],"sum_hessian":[1.9531E4,1.2304E4,7.227E3,4.215E3,8.089E3,4.445E3,2.782E3],"tree_param":{"num_deleted":"0","num_feature":"17","num_nodes":"7","size_leaf_vector":"1"}},{"base_weights":[-2.6052913E-1,-5.829545E-1,2.895721E-1,-8.498131E-3,-4.5503313E-3,7.5292657E-3,1.038981E-3],"categories":[],"categories_nodes":[],"categories_segments":[],"categories_sizes":[],"default_left":[0,0,0,0,0,0,0],"id":68,"left_children":[1,3,5,-1,-1,-1,-1],"loss_changes":[3.4659211E3,4.2165088E2,6.146349E2,0E0,0E0,0E0,0E0],"parents":[2147483647,0,0,1,1,2,2],"right_children":[2,4,6,-1,-1,-1,-1],"split_conditions":[3.0599752E-1,-6.8328446E-1,-1.0843943E0,-8.498131E-3,-4.5503313E-3,7.5292657E-3,1.038981E-3],"split_indices":[0,0,12,0,0,0,0],"split_type":[0,0,0,0,0,0,0],"sum_hessian":[1.9541E4,1.232E4,7.221E3,4.174E3,8.146E3,2.098E3,5.123E3],"tree_param":{"num_deleted":"0","num_feature":"17","num_nodes":"7","size_leaf_vector":"1"}},{"base_weights":[-2.5585696E-1,-5.2700347E-1,4.008439E-1,-7.926296E-3,-3.6635604E-3,6.2462008E-3,3.1622392E-4],"categories":[],"categories_nodes":[],"categories_segments":[],"categories_sizes":[],"default_left":[0,0,0,0,0,0,0],"id":69,"left_children":[1,3,5,-1,-1,-1,-1],"loss_changes":[3.465802E3,5.8336475E2,4.5735913E2,0E0,0E0,0E0,0E0],"parents":[2147483647,0,0,1,1,2,2],"right_children":[2,4,6,-1,-1,-1,-1],"split_conditions":[4.8586696E-1,-5.03415E-1,-4.8960976E-2,-7.926296E-3,-3.6635604E-3,6.2462008E-3,3.1622392E-4],"split_indices":[0,0,10,0,0,0,0],"split_type":[0,0,0,0,0,0,0],"sum_hessian":[1.9464E4,1.3776E4,5.688E3,5.362E3,8.414E3,3.58E3,2.108E3],"tree_param":{"num_deleted":"0","num_feature":"17","num_nodes":"7","size_leaf_vector":"1"}},{"base_weights":[-2.5789905E-1,-5.794019E-1,2.8838432E-1,-8.482837E-3,-4.497062E-3,7.5107533E-3,1.0492996E-3],"categories":[],"categories_nodes":[],"categories_segments":[],"categories_sizes":[],"default_left":[0,0,0,0,0,0,0],"id":70,"left_children":[1,3,5,-1,-1,-1,-1],"loss_changes":[3.4241152E3,4.2885986E2,6.0667E2,0E0,0E0,0E0,0E0],"parents":[2147483647,0,0,1,1,2,2],"right_children":[2,4,6,-1,-1,-1,-1],"split_conditions":[3.0599752E-1,-6.8328446E-1,-1.0843943E0,-8.482837E-3,-4.497062E-3,7.5107533E-3,1.0492996E-3],"split_indices":[0,0,12,0,0,0,0],"split_type":[0,0,0,0,0,0,0],"sum_hessian":[1.9496E4,1.2273E4,7.223E3,4.172E3,8.101E3,2.083E3,5.14E3],"tree_param":{"num_deleted":"0","num_feature":"17","num_nodes":"7","size_leaf_vector":"1"}},{"base_weights":[-2.5922513E-1,-5.5396014E-1,3.394353E-1,-8.017603E-3,-3.9083688E-3,7.875193E-3,1.5095047E-3],"categories":[],"categories_nodes":[],"categories_segments":[],"categories_sizes":[],"default_left":[0,0,0,0,0,0,0],"id":71,"left_children":[1,3,5,-1,-1,-1,-1],"loss_changes":[3.447582E3,5.244436E2,5.3917834E2,0E0,0E0,0E0,0E0],"parents":[2147483647,0,0,1,1,2,2],"right_children":[2,4,6,-1,-1,-1,-1],"split_conditions":[3.9593226E-1,-5.03415E-1,-1.0843943E0,-8.017603E-3,-3.9083688E-3,7.875193E-3,1.5095047E-3],"split_indices":[0,0,12,0,0,0,0],"split_type":[0,0,0,0,0,0,0],"sum_hessian":[1.9539E4,1.3093E4,6.446E3,5.374E3,7.719E3,1.943E3,4.503E3],"tree_param":{"num_deleted":"0","num_feature":"17","num_nodes":"7","size_leaf_vector":"1"}},{"base_weights":[-2.5306898E-1,-5.2668417E-1,3.9926994E-1,-7.943565E-3,-3.651705E-3,6.204484E-3,3.0519356E-4],"categories":[],"categories_nodes":[],"categories_segments":[],"categories_sizes":[],"default_left":[0,0,0,0,0,0,0],"id":72,"left_children":[1,3,5,-1,-1,-1,-1],"loss_changes":[3.4750188E3,5.884407E2,4.565548E2,0E0,0E0,0E0,0E0],"parents":[2147483647,0,0,1,1,2,2],"right_children":[2,4,6,-1,-1,-1,-1],"split_conditions":[4.8586696E-1,-5.03415E-1,-4.8960976E-2,-7.943565E-3,-3.651705E-3,6.204484E-3,3.0519356E-4],"split_indices":[0,0,10,0,0,0,0],"split_type":[0,0,0,0,0,0,0],"sum_hessian":[1.9469E4,1.3716E4,5.753E3,5.33E3,8.386E3,3.635E3,2.118E3],"tree_param":{"num_deleted":"0","num_feature":"17","num_nodes":"7","size_leaf_vector":"1"}},{"base_weights":[-2.5525156E-1,-5.514633E-1,3.4753537E-1,-7.997873E-3,-3.8844142E-3,8.002108E-3,1.5625056E-3],"categories":[],"categories_nodes":[],"categories_segments":[],"categories_sizes":[],"default_left":[0,0,0,0,0,0,0],"id":73,"left_children":[1,3,5,-1,-1,-1,-1],"loss_changes":[3.4849885E3,5.249973E2,5.515383E2,0E0,0E0,0E0,0E0],"parents":[2147483647,0,0,1,1,2,2],"right_children":[2,4,6,-1,-1,-1,-1],"split_conditions":[3.9593226E-1,-5.03415E-1,-1.0843943E0,-7.997873E-3,-3.8844142E-3,8.002108E-3,1.5625056E-3],"split_indices":[0,0,12,0,0,0,0],"split_type":[0,0,0,0,0,0,0],"sum_hessian":[1.9518E4,1.3087E4,6.431E3,5.362E3,7.725E3,1.945E3,4.486E3],"tree_param":{"num_deleted":"0","num_feature":"17","num_nodes":"7","size_leaf_vector":"1"}},{"base_weights":[-2.5805134E-1,-5.81045E-1,2.9444367E-1,-8.504885E-3,-4.5007626E-3,7.67058E-3,1.0631578E-3],"categories":[],"categories_nodes":[],"categories_segments":[],"categories_sizes":[],"default_left":[0,0,0,0,0,0,0],"id":74,"left_children":[1,3,5,-1,-1,-1,-1],"loss_changes":[3.4908853E3,4.363833E2,6.3489874E2,0E0,0E0,0E0,0E0],"parents":[2147483647,0,0,1,1,2,2],"right_children":[2,4,6,-1,-1,-1,-1],"split_conditions":[3.0599752E-1,-6.8328446E-1,-1.0843943E0,-8.504885E-3,-4.5007626E-3,7.67058E-3,1.0631578E-3],"split_indices":[0,0,12,0,0,0,0],"split_type":[0,0,0,0,0,0,0],"sum_hessian":[1.9562E4,1.2345E4,7.217E3,4.217E3,8.128E3,2.087E3,5.13E3],"tree_param":{"num_deleted":"0","num_feature":"17","num_nodes":"7","size_leaf_vector":"1"}},{"base_weights":[-2.6163116E-1,-5.3294367E-1,3.951782E-1,-7.990553E-3,-3.7074431E-3,4.8164516E-3,-5.726339E-3],"categories":[],"categories_nodes":[],"categories_segments":[],"categories_sizes":[],"default_left":[0,0,0,0,0,0,0],"id":75,"left_children":[1,3,5,-1,-1,-1,-1],"loss_changes":[3.4893452E3,5.9346313E2,4.499369E2,0E0,0E0,0E0,0E0],"parents":[2147483647,0,0,1,1,2,2],"right_children":[2,4,6,-1,-1,-1,-1],"split_conditions":[4.8586696E-1,-5.03415E-1,2.6E1,-7.990553E-3,-3.7074431E-3,4.8164516E-3,-5.726339E-3],"split_indices":[0,0,3,0,0,0,0],"split_type":[0,0,0,0,0,0,0],"sum_hessian":[1.9581E4,1.3857E4,5.724E3,5.42E3,8.437E3,5.276E3,4.48E2],"tree_param":{"num_deleted":"0","num_feature":"17","num_nodes":"7","size_leaf_vector":"1"}},{"base_weights":[-2.555118E-1,-5.259045E-1,3.9675337E-1,-7.922822E-3,-3.6512073E-3,6.186705E-3,3.1354657E-4],"categories":[],"categories_nodes":[],"categories_segments":[],"categories_sizes":[],"default_left":[0,0,0,0,0,0,0],"id":76,"left_children":[1,3,5,-1,-1,-1,-1],"loss_changes":[3.447813E3,5.8738525E2,4.5211566E2,0E0,0E0,0E0,0E0],"parents":[2147483647,0,0,1,1,2,2],"right_children":[2,4,6,-1,-1,-1,-1],"split_conditions":[4.8586696E-1,-5.03415E-1,-4.8960976E-2,-7.922822E-3,-3.6512073E-3,6.186705E-3,3.1354657E-4],"split_indices":[0,0,10,0,0,0,0],"split_type":[0,0,0,0,0,0,0],"sum_hessian":[1.9549E4,1.382E4,5.729E3,5.372E3,8.448E3,3.603E3,2.126E3],"tree_param":{"num_deleted":"0","num_feature":"17","num_nodes":"7","size_leaf_vector":"1"}},{"base_weights":[-2.5654128E-1,-5.2521825E-1,3.95691E-1,-7.930064E-3,-3.6479814E-3,6.195419E-3,2.988727E-4],"categories":[],"categories_nodes":[],"categories_segments":[],"categories_sizes":[],"default_left":[0,0,0,0,0,0,0],"id":77,"left_children":[1,3,5,-1,-1,-1,-1],"loss_changes":[3.4290923E3,5.909187E2,4.550418E2,0E0,0E0,0E0,0E0],"parents":[2147483647,0,0,1,1,2,2],"right_children":[2,4,6,-1,-1,-1,-1],"split_conditions":[4.8586696E-1,-5.03415E-1,-4.8960976E-2,-7.930064E-3,-3.6479814E-3,6.195419E-3,2.988727E-4],"split_indices":[0,0,10,0,0,0,0],"split_type":[0,0,0,0,0,0,0],"sum_hessian":[1.9568E4,1.3859E4,5.709E3,5.362E3,8.497E3,3.58E3,2.129E3],"tree_param":{"num_deleted":"0","num_feature":"17","num_nodes":"7","size_leaf_vector":"1"}},{"base_weights":[-2.557473E-1,-5.808081E-1,2.942798E-1,-8.437944E-3,-4.532067E-3,7.6010306E-3,1.0433313E-3],"categories":[],"categories_nodes":[],"categories_segments":[],"categories_sizes":[],"default_left":[0,0,0,0,0,0,0],"id":78,"left_children":[1,3,5,-1,-1,-1,-1],"loss_changes":[3.4919917E3,4.1289062E2,6.349975E2,0E0,0E0,0E0,0E0],"parents":[2147483647,0,0,1,1,2,2],"right_children":[2,4,6,-1,-1,-1,-1],"split_conditions":[3.0599752E-1,-6.8328446E-1,-1.0843943E0,-8.437944E-3,-4.532067E-3,7.6010306E-3,1.0433313E-3],"split_indices":[0,0,12,0,0,0,0],"split_type":[0,0,0,0,0,0,0],"sum_hessian":[1.9531E4,1.2276E4,7.255E3,4.193E3,8.083E3,2.134E3,5.121E3],"tree_param":{"num_deleted":"0","num_feature":"17","num_nodes":"7","size_leaf_vector":"1"}},{"base_weights":[-2.5479564E-1,-5.7660437E-1,2.9244372E-1,-8.471198E-3,-4.4382005E-3,5.2382126E-3,-6.9992815E-4],"categories":[],"categories_nodes":[],"categories_segments":[],"categories_sizes":[],"default_left":[0,0,0,0,0,0,0],"id":79,"left_children":[1,3,5,-1,-1,-1,-1],"loss_changes":[3.442704E3,4.426477E2,5.923183E2,0E0,0E0,0E0,0E0],"parents":[2147483647,0,0,1,1,2,2],"right_children":[2,4,6,-1,-1,-1,-1],"split_conditions":[3.0599752E-1,-6.8328446E-1,1.6E1,-8.471198E-3,-4.4382005E-3,5.2382126E-3,-6.9992815E-4],"split_indices":[0,0,3,0,0,0,0],"split_type":[0,0,0,0,0,0,0],"sum_hessian":[1.9549E4,1.231E4,7.239E3,4.229E3,8.081E3,4.454E3,2.785E3],"tree_param":{"num_deleted":"0","num_feature":"17","num_nodes":"7","size_leaf_vector":"1"}},{"base_weights":[-2.568976E-1,-5.807733E-1,2.9536974E-1,-8.477299E-3,-4.5081065E-3,7.612506E-3,1.1065267E-3],"categories":[],"categories_nodes":[],"categories_segments":[],"categories_sizes":[],"default_left":[0,0,0,0,0,0,0],"id":80,"left_children":[1,3,5,-1,-1,-1,-1],"loss_changes":[3.5007646E3,4.2880518E2,6.1617633E2,0E0,0E0,0E0,0E0],"parents":[2147483647,0,0,1,1,2,2],"right_children":[2,4,6,-1,-1,-1,-1],"split_conditions":[3.0599752E-1,-6.8328446E-1,-1.0843943E0,-8.477299E-3,-4.5081065E-3,7.612506E-3,1.1065267E-3],"split_indices":[0,0,12,0,0,0,0],"split_type":[0,0,0,0,0,0,0],"sum_hessian":[1.9572E4,1.2337E4,7.235E3,4.22E3,8.117E3,2.087E3,5.148E3],"tree_param":{"num_deleted":"0","num_feature":"17","num_nodes":"7","size_leaf_vector":"1"}},{"base_weights":[-2.5601593E-1,-5.786654E-1,2.9179877E-1,-8.455534E-3,-4.4931746E-3,7.55815E-3,1.0713012E-3],"categories":[],"categories_nodes":[],"categories_segments":[],"categories_sizes":[],"default_left":[0,0,0,0,0,0,0],"id":81,"left_children":[1,3,5,-1,-1,-1,-1],"loss_changes":[3.4595684E3,4.260625E2,6.151629E2,0E0,0E0,0E0,0E0],"parents":[2147483647,0,0,1,1,2,2],"right_children":[2,4,6,-1,-1,-1,-1],"split_conditions":[3.0599752E-1,-6.8328446E-1,-1.0843943E0,-8.455534E-3,-4.4931746E-3,7.55815E-3,1.0713012E-3],"split_indices":[0,0,12,0,0,0,0],"split_type":[0,0,0,0,0,0,0],"sum_hessian":[1.9573E4,1.2318E4,7.255E3,4.201E3,8.117E3,2.098E3,5.157E3],"tree_param":{"num_deleted":"0","num_feature":"17","num_nodes":"7","size_leaf_vector":"1"}},{"base_weights":[-2.5351608E-1,-5.759929E-1,3.0097356E-1,-8.418272E-3,-4.4832574E-3,5.3516114E-3,-6.8605156E-4],"categories":[],"categories_nodes":[],"categories_segments":[],"categories_sizes":[],"default_left":[0,0,0,0,0,0,0],"id":82,"left_children":[1,3,5,-1,-1,-1,-1],"loss_changes":[3.4962725E3,4.2055518E2,6.071021E2,0E0,0E0,0E0,0E0],"parents":[2147483647,0,0,1,1,2,2],"right_children":[2,4,6,-1,-1,-1,-1],"split_conditions":[3.0599752E-1,-6.8328446E-1,1.6E1,-8.418272E-3,-4.4832574E-3,5.3516114E-3,-6.8605156E-4],"split_indices":[0,0,3,0,0,0,0],"split_type":[0,0,0,0,0,0,0],"sum_hessian":[1.9553E4,1.2363E4,7.19E3,4.192E3,8.171E3,4.437E3,2.753E3],"tree_param":{"num_deleted":"0","num_feature":"17","num_nodes":"7","size_leaf_vector":"1"}},{"base_weights":[-2.5592056E-1,-5.813051E-1,2.9774353E-1,-8.478242E-3,-4.525622E-3,7.579755E-3,1.1191679E-3],"categories":[],"categories_nodes":[],"categories_segments":[],"categories_sizes":[],"default_left":[0,0,0,0,0,0,0],"id":83,"left_children":[1,3,5,-1,-1,-1,-1],"loss_changes":[3.537318E3,4.2528125E2,6.150945E2,0E0,0E0,0E0,0E0],"parents":[2147483647,0,0,1,1,2,2],"right_children":[2,4,6,-1,-1,-1,-1],"split_conditions":[3.0599752E-1,-6.8328446E-1,-1.0843943E0,-8.478242E-3,-4.525622E-3,7.579755E-3,1.1191679E-3],"split_indices":[0,0,12,0,0,0,0],"split_type":[0,0,0,0,0,0,0],"sum_hessian":[1.9635E4,1.2367E4,7.268E3,4.21E3,8.157E3,2.124E3,5.144E3],"tree_param":{"num_deleted":"0","num_feature":"17","num_nodes":"7","size_leaf_vector":"1"}},{"base_weights":[-2.585351E-1,-5.8178425E-1,2.93156E-1,-8.446705E-3,-4.5447513E-3,7.4677323E-3,1.1178411E-3],"categories":[],"categories_nodes":[],"categories_segments":[],"categories_sizes":[],"default_left":[0,0,0,0,0,0,0],"id":84,"left_children":[1,3,5,-1,-1,-1,-1],"loss_changes":[3.484105E3,4.132832E2,5.8773474E2,0E0,0E0,0E0,0E0],"parents":[2147483647,0,0,1,1,2,2],"right_children":[2,4,6,-1,-1,-1,-1],"split_conditions":[3.0599752E-1,-6.8328446E-1,-1.0843943E0,-8.446705E-3,-4.5447513E-3,7.4677323E-3,1.1178411E-3],"split_indices":[0,0,12,0,0,0,0],"split_type":[0,0,0,0,0,0,0],"sum_hessian":[1.9537E4,1.2319E4,7.218E3,4.203E3,8.116E3,2.095E3,5.123E3],"tree_param":{"num_deleted":"0","num_feature":"17","num_nodes":"7","size_leaf_vector":"1"}},{"base_weights":[-2.5838104E-1,-5.820968E-1,2.9343468E-1,-8.480952E-3,-4.515103E-3,7.66673E-3,1.0506513E-3],"categories":[],"categories_nodes":[],"categories_segments":[],"categories_sizes":[],"default_left":[0,0,0,0,0,0,0],"id":85,"left_children":[1,3,5,-1,-1,-1,-1],"loss_changes":[3.4954604E3,4.290752E2,6.381141E2,0E0,0E0,0E0,0E0],"parents":[2147483647,0,0,1,1,2,2],"right_children":[2,4,6,-1,-1,-1,-1],"split_conditions":[3.0599752E-1,-6.8328446E-1,-1.0843943E0,-8.480952E-3,-4.515103E-3,7.66673E-3,1.0506513E-3],"split_indices":[0,0,12,0,0,0,0],"split_type":[0,0,0,0,0,0,0],"sum_hessian":[1.9568E4,1.2333E4,7.235E3,4.242E3,8.091E3,2.092E3,5.143E3],"tree_param":{"num_deleted":"0","num_feature":"17","num_nodes":"7","size_leaf_vector":"1"}},{"base_weights":[-2.5683728E-1,-5.789134E-1,2.9359823E-1,-8.021795E-3,-4.158483E-3,5.305394E-3,-7.5416215E-4],"categories":[],"categories_nodes":[],"categories_segments":[],"categories_sizes":[],"default_left":[0,0,0,0,0,0,0],"id":86,"left_children":[1,3,5,-1,-1,-1,-1],"loss_changes":[3.480934E3,4.4591162E2,6.1842365E2,0E0,0E0,0E0,0E0],"parents":[2147483647,0,0,1,1,2,2],"right_children":[2,4,6,-1,-1,-1,-1],"split_conditions":[3.0599752E-1,-5.03415E-1,1.6E1,-8.021795E-3,-4.158483E-3,5.305394E-3,-7.5416215E-4],"split_indices":[0,0,3,0,0,0,0],"split_type":[0,0,0,0,0,0,0],"sum_hessian":[1.9635E4,1.2387E4,7.248E3,5.414E3,6.973E3,4.449E3,2.799E3],"tree_param":{"num_deleted":"0","num_feature":"17","num_nodes":"7","size_leaf_vector":"1"}},{"base_weights":[-2.538273E-1,-5.2880794E-1,4.0621203E-1,-7.950984E-3,-3.6767488E-3,6.248422E-3,4.1010388E-4],"categories":[],"categories_nodes":[],"categories_segments":[],"categories_sizes":[],"default_left":[0,0,0,0,0,0,0],"id":87,"left_children":[1,3,5,-1,-1,-1,-1],"loss_changes":[3.5566353E3,5.8901514E2,4.4761816E2,0E0,0E0,0E0,0E0],"parents":[2147483647,0,0,1,1,2,2],"right_children":[2,4,6,-1,-1,-1,-1],"split_conditions":[4.8586696E-1,-5.03415E-1,-4.8960976E-2,-7.950984E-3,-3.6767488E-3,6.248422E-3,4.1010388E-4],"split_indices":[0,0,10,0,0,0,0],"split_type":[0,0,0,0,0,0,0],"sum_hessian":[1.9596E4,1.3833E4,5.763E3,5.386E3,8.447E3,3.645E3,2.118E3],"tree_param":{"num_deleted":"0","num_feature":"17","num_nodes":"7","size_leaf_vector":"1"}},{"base_weights":[-2.591797E-1,-5.2873147E-1,3.9290085E-1,-8.008652E-3,-3.6571429E-3,6.1711306E-3,2.2867924E-4],"categories":[],"categories_nodes":[],"categories_segments":[],"categories_sizes":[],"default_left":[0,0,0,0,0,0,0],"id":88,"left_children":[1,3,5,-1,-1,-1,-1],"loss_changes":[3.4369963E3,6.091067E2,4.618343E2,0E0,0E0,0E0,0E0],"parents":[2147483647,0,0,1,1,2,2],"right_children":[2,4,6,-1,-1,-1,-1],"split_conditions":[4.8586696E-1,-5.03415E-1,-4.8960976E-2,-8.008652E-3,-3.6571429E-3,6.1711306E-3,2.2867924E-4],"split_indices":[0,0,10,0,0,0,0],"split_type":[0,0,0,0,0,0,0],"sum_hessian":[1.9554E4,1.3835E4,5.719E3,5.351E3,8.484E3,3.599E3,2.12E3],"tree_param":{"num_deleted":"0","num_feature":"17","num_nodes":"7","size_leaf_vector":"1"}},{"base_weights":[-2.5561914E-1,-5.815995E-1,2.9592958E-1,-8.518215E-3,-4.490417E-3,7.635176E-3,1.1048705E-3],"categories":[],"categories_nodes":[],"categories_segments":[],"categories_sizes":[],"default_left":[0,0,0,0,0,0,0],"id":89,"left_children":[1,3,5,-1,-1,-1,-1],"loss_changes":[3.519648E3,4.4129492E2,6.240255E2,0E0,0E0,0E0,0E0],"parents":[2147483647,0,0,1,1,2,2],"right_children":[2,4,6,-1,-1,-1,-1],"split_conditions":[3.0599752E-1,-6.8328446E-1,-1.0843943E0,-8.518215E-3,-4.490417E-3,7.635176E-3,1.1048705E-3],"split_indices":[0,0,12,0,0,0,0],"split_type":[0,0,0,0,0,0,0],"sum_hessian":[1.9576E4,1.2304E4,7.272E3,4.227E3,8.077E3,2.098E3,5.174E3],"tree_param":{"num_deleted":"0","num_feature":"17","num_nodes":"7","size_leaf_vector":"1"}},{"base_weights":[-2.5901005E-1,-5.273829E-1,3.869399E-1,-7.936519E-3,-3.6715362E-3,6.0855416E-3,1.7150943E-4],"categories":[],"categories_nodes":[],"categories_segments":[],"categories_sizes":[],"default_left":[0,0,0,0,0,0,0],"id":90,"left_children":[1,3,5,-1,-1,-1,-1],"loss_changes":[3.400714E3,5.868508E2,4.592525E2,0E0,0E0,0E0,0E0],"parents":[2147483647,0,0,1,1,2,2],"right_children":[2,4,6,-1,-1,-1,-1],"split_conditions":[4.8586696E-1,-5.03415E-1,-4.8960976E-2,-7.936519E-3,-3.6715362E-3,6.0855416E-3,1.7150943E-4],"split_indices":[0,0,10,0,0,0,0],"split_type":[0,0,0,0,0,0,0],"sum_hessian":[1.9617E4,1.3859E4,5.758E3,5.378E3,8.481E3,3.638E3,2.12E3],"tree_param":{"num_deleted":"0","num_feature":"17","num_nodes":"7","size_leaf_vector":"1"}},{"base_weights":[-2.589788E-1,-5.290038E-1,3.96458E-1,-8.00174E-3,-3.671647E-3,4.831938E-3,-5.7520177E-3],"categories":[],"categories_nodes":[],"categories_segments":[],"categories_sizes":[],"default_left":[0,0,0,0,0,0,0],"id":91,"left_children":[1,3,5,-1,-1,-1,-1],"loss_changes":[3.459336E3,6.030112E2,4.5146356E2,0E0,0E0,0E0,0E0],"parents":[2147483647,0,0,1,1,2,2],"right_children":[2,4,6,-1,-1,-1,-1],"split_conditions":[4.8586696E-1,-5.03415E-1,2.6E1,-8.00174E-3,-3.671647E-3,4.831938E-3,-5.7520177E-3],"split_indices":[0,0,3,0,0,0,0],"split_type":[0,0,0,0,0,0,0],"sum_hessian":[1.9546E4,1.3843E4,5.703E3,5.343E3,8.5E3,5.257E3,4.46E2],"tree_param":{"num_deleted":"0","num_feature":"17","num_nodes":"7","size_leaf_vector":"1"}},{"base_weights":[-2.5819337E-1,-5.283963E-1,3.906985E-1,-7.943565E-3,-3.6938982E-3,6.14819E-3,1.9038643E-4],"categories":[],"categories_nodes":[],"categories_segments":[],"categories_sizes":[],"default_left":[0,0,0,0,0,0,0],"id":92,"left_children":[1,3,5,-1,-1,-1,-1],"loss_changes":[3.423893E3,5.788164E2,4.654532E2,0E0,0E0,0E0,0E0],"parents":[2147483647,0,0,1,1,2,2],"right_children":[2,4,6,-1,-1,-1,-1],"split_conditions":[4.8586696E-1,-5.03415E-1,-4.8960976E-2,-7.943565E-3,-3.6938982E-3,6.14819E-3,1.9038643E-4],"split_indices":[0,0,10,0,0,0,0],"split_type":[0,0,0,0,0,0,0],"sum_hessian":[1.9528E4,1.3787E4,5.741E3,5.33E3,8.457E3,3.619E3,2.122E3],"tree_param":{"num_deleted":"0","num_feature":"17","num_nodes":"7","size_leaf_vector":"1"}},{"base_weights":[-2.58516E-1,-5.7899016E-1,2.939033E-1,-8.467338E-3,-4.4799997E-3,7.532936E-3,1.063369E-3],"categories":[],"categories_nodes":[],"categories_segments":[],"categories_sizes":[],"default_left":[0,0,0,0,0,0,0],"id":93,"left_children":[1,3,5,-1,-1,-1,-1],"loss_changes":[3.4405193E3,4.3199072E2,6.0820935E2,0E0,0E0,0E0,0E0],"parents":[2147483647,0,0,1,1,2,2],"right_children":[2,4,6,-1,-1,-1,-1],"split_conditions":[3.0599752E-1,-6.8328446E-1,-1.0843943E0,-8.467338E-3,-4.4799997E-3,7.532936E-3,1.063369E-3],"split_indices":[0,0,12,0,0,0,0],"split_type":[0,0,0,0,0,0,0],"sum_hessian":[1.9434E4,1.2299E4,7.135E3,4.219E3,8.08E3,2.101E3,5.034E3],"tree_param":{"num_deleted":"0","num_feature":"17","num_nodes":"7","size_leaf_vector":"1"}},{"base_weights":[-2.587605E-1,-5.807549E-1,2.8888276E-1,-8.460745E-3,-4.5086835E-3,7.601227E-3,9.88193E-4],"categories":[],"categories_nodes":[],"categories_segments":[],"categories_sizes":[],"default_left":[0,0,0,0,0,0,0],"id":94,"left_children":[1,3,5,-1,-1,-1,-1],"loss_changes":[3.457108E3,4.2618848E2,6.430661E2,0E0,0E0,0E0,0E0],"parents":[2147483647,0,0,1,1,2,2],"right_children":[2,4,6,-1,-1,-1,-1],"split_conditions":[3.0599752E-1,-6.8328446E-1,-1.0843943E0,-8.460745E-3,-4.5086835E-3,7.601227E-3,9.88193E-4],"split_indices":[0,0,12,0,0,0,0],"split_type":[0,0,0,0,0,0,0],"sum_hessian":[1.9605E4,1.2346E4,7.259E3,4.239E3,8.107E3,2.118E3,5.141E3],"tree_param":{"num_deleted":"0","num_feature":"17","num_nodes":"7","size_leaf_vector":"1"}},{"base_weights":[-2.594108E-1,-5.8038104E-1,2.8917834E-1,-8.486889E-3,-4.5090173E-3,7.579809E-3,1.0086183E-3],"categories":[],"categories_nodes":[],"categories_segments":[],"categories_sizes":[],"default_left":[0,0,0,0,0,0,0],"id":95,"left_children":[1,3,5,-1,-1,-1,-1],"loss_changes":[3.4427314E3,4.2941357E2,6.3026544E2,0E0,0E0,0E0,0E0],"parents":[2147483647,0,0,1,1,2,2],"right_children":[2,4,6,-1,-1,-1,-1],"split_conditions":[3.0599752E-1,-6.8328446E-1,-1.0843943E0,-8.486889E-3,-4.5090173E-3,7.579809E-3,1.0086183E-3],"split_indices":[0,0,12,0,0,0,0],"split_type":[0,0,0,0,0,0,0],"sum_hessian":[1.9552E4,1.2335E4,7.217E3,4.195E3,8.14E3,2.1E3,5.117E3],"tree_param":{"num_deleted":"0","num_feature":"17","num_nodes":"7","size_leaf_vector":"1"}},{"base_weights":[-2.5712535E-1,-5.7923806E-1,2.8856474E-1,-7.973684E-3,-4.214023E-3,5.286171E-3,-8.7355246E-4],"categories":[],"categories_nodes":[],"categories_segments":[],"categories_sizes":[],"default_left":[0,0,0,0,0,0,0],"id":96,"left_children":[1,3,5,-1,-1,-1,-1],"loss_changes":[3.4412979E3,4.1931104E2,6.40004E2,0E0,0E0,0E0,0E0],"parents":[2147483647,0,0,1,1,2,2],"right_children":[2,4,6,-1,-1,-1,-1],"split_conditions":[3.0599752E-1,-5.03415E-1,1.6E1,-7.973684E-3,-4.214023E-3,5.286171E-3,-8.7355246E-4],"split_indices":[0,0,3,0,0,0,0],"split_type":[0,0,0,0,0,0,0],"sum_hessian":[1.9578E4,1.2311E4,7.267E3,5.358E3,6.953E3,4.469E3,2.798E3],"tree_param":{"num_deleted":"0","num_feature":"17","num_nodes":"7","size_leaf_vector":"1"}},{"base_weights":[-2.5616544E-1,-5.533211E-1,3.4799442E-1,-7.96617E-3,-3.9391434E-3,7.922571E-3,1.5710109E-3],"categories":[],"categories_nodes":[],"categories_segments":[],"categories_sizes":[],"default_left":[0,0,0,0,0,0,0],"id":97,"left_children":[1,3,5,-1,-1,-1,-1],"loss_changes":[3.5160862E3,5.0469092E2,5.423119E2,0E0,0E0,0E0,0E0],"parents":[2147483647,0,0,1,1,2,2],"right_children":[2,4,6,-1,-1,-1,-1],"split_conditions":[3.9593226E-1,-5.03415E-1,-1.0843943E0,-7.96617E-3,-3.9391434E-3,7.922571E-3,1.5710109E-3],"split_indices":[0,0,12,0,0,0,0],"split_type":[0,0,0,0,0,0,0],"sum_hessian":[1.9585E4,1.3128E4,6.457E3,5.377E3,7.751E3,1.976E3,4.481E3],"tree_param":{"num_deleted":"0","num_feature":"17","num_nodes":"7","size_leaf_vector":"1"}},{"base_weights":[-2.566908E-1,-5.3031075E-1,3.9993015E-1,-8.003271E-3,-3.684827E-3,6.2667495E-3,2.2486973E-4],"categories":[],"categories_nodes":[],"categories_segments":[],"categories_sizes":[],"default_left":[0,0,0,0,0,0,0],"id":98,"left_children":[1,3,5,-1,-1,-1,-1],"loss_changes":[3.4975303E3,5.95949E2,4.769212E2,0E0,0E0,0E0,0E0],"parents":[2147483647,0,0,1,1,2,2],"right_children":[2,4,6,-1,-1,-1,-1],"split_conditions":[4.8586696E-1,-5.03415E-1,-4.8960976E-2,-8.003271E-3,-3.684827E-3,6.2667495E-3,2.2486973E-4],"split_indices":[0,0,10,0,0,0,0],"split_type":[0,0,0,0,0,0,0],"sum_hessian":[1.9467E4,1.3741E4,5.726E3,5.318E3,8.423E3,3.615E3,2.111E3],"tree_param":{"num_deleted":"0","num_feature":"17","num_nodes":"7","size_leaf_vector":"1"}},{"base_weights":[-2.5620848E-1,-5.7998866E-1,2.9556447E-1,-8.439132E-3,-4.5268154E-3,7.617103E-3,1.0929544E-3],"categories":[],"categories_nodes":[],"categories_segments":[],"categories_sizes":[],"default_left":[0,0,0,0,0,0,0],"id":99,"left_children":[1,3,5,-1,-1,-1,-1],"loss_changes":[3.4962417E3,4.1539014E2,6.218032E2,0E0,0E0,0E0,0E0],"parents":[2147483647,0,0,1,1,2,2],"right_children":[2,4,6,-1,-1,-1,-1],"split_conditions":[3.0599752E-1,-6.8328446E-1,-1.0843943E0,-8.439132E-3,-4.5268154E-3,7.617103E-3,1.0929544E-3],"split_indices":[0,0,12,0,0,0,0],"split_type":[0,0,0,0,0,0,0],"sum_hessian":[1.957E4,1.2333E4,7.237E3,4.196E3,8.137E3,2.099E3,5.138E3],"tree_param":{"num_deleted":"0","num_feature":"17","num_nodes":"7","size_leaf_vector":"1"}},{"base_weights":[-2.577584E-1,-5.808686E-1,2.9133204E-1,-8.447973E-3,-4.5268103E-3,7.5241607E-3,1.0815809E-3],"categories":[],"categories_nodes":[],"categories_segments":[],"categories_sizes":[],"default_left":[0,0,0,0,0,0,0],"id":100,"left_children":[1,3,5,-1,-1,-1,-1],"loss_changes":[3.4587388E3,4.1612354E2,6.036132E2,0E0,0E0,0E0,0E0],"parents":[2147483647,0,0,1,1,2,2],"right_children":[2,4,6,-1,-1,-1,-1],"split_conditions":[3.0599752E-1,-6.8328446E-1,-1.0843943E0,-8.447973E-3,-4.5268103E-3,7.5241607E-3,1.0815809E-3],"split_indices":[0,0,12,0,0,0,0],"split_type":[0,0,0,0,0,0,0],"sum_hessian":[1.9495E4,1.2273E4,7.222E3,4.194E3,8.079E3,2.086E3,5.136E3],"tree_param":{"num_deleted":"0","num_feature":"17","num_nodes":"7","size_leaf_vector":"1"}},{"base_weights":[-2.5649834E-1,-5.770703E-1,2.8848284E-1,-8.437944E-3,-4.4755684E-3,7.51639E-3,1.013358E-3],"categories":[],"categories_nodes":[],"categories_segments":[],"categories_sizes":[],"default_left":[0,0,0,0,0,0,0],"id":101,"left_children":[1,3,5,-1,-1,-1,-1],"loss_changes":[3.4076343E3,4.2501147E2,6.194059E2,0E0,0E0,0E0,0E0],"parents":[2147483647,0,0,1,1,2,2],"right_children":[2,4,6,-1,-1,-1,-1],"split_conditions":[3.0599752E-1,-6.8328446E-1,-1.0843943E0,-8.437944E-3,-4.4755684E-3,7.51639E-3,1.013358E-3],"split_indices":[0,0,12,0,0,0,0],"split_type":[0,0,0,0,0,0,0],"sum_hessian":[1.9505E4,1.2281E4,7.224E3,4.193E3,8.088E3,2.111E3,5.113E3],"tree_param":{"num_deleted":"0","num_feature":"17","num_nodes":"7","size_leaf_vector":"1"}},{"base_weights":[-2.5734803E-1,-5.305246E-1,3.9534074E-1,-7.934761E-3,-3.7414494E-3,4.8287762E-3,-5.7144733E-3],"categories":[],"categories_nodes":[],"categories_segments":[],"categories_sizes":[],"default_left":[0,0,0,0,0,0,0],"id":102,"left_children":[1,3,5,-1,-1,-1,-1],"loss_changes":[3.4759443E3,5.612185E2,4.5750952E2,0E0,0E0,0E0,0E0],"parents":[2147483647,0,0,1,1,2,2],"right_children":[2,4,6,-1,-1,-1,-1],"split_conditions":[4.8586696E-1,-5.03415E-1,2.6E1,-7.934761E-3,-3.7414494E-3,4.8287762E-3,-5.7144733E-3],"split_indices":[0,0,3,0,0,0,0],"split_type":[0,0,0,0,0,0,0],"sum_hessian":[1.9495E4,1.3743E4,5.752E3,5.299E3,8.444E3,5.296E3,4.56E2],"tree_param":{"num_deleted":"0","num_feature":"17","num_nodes":"7","size_leaf_vector":"1"}},{"base_weights":[-2.549401E-1,-5.799821E-1,2.9882354E-1,-7.992601E-3,-4.222582E-3,5.369043E-3,-7.123881E-4],"categories":[],"categories_nodes":[],"categories_segments":[],"categories_sizes":[],"default_left":[0,0,0,0,0,0,0],"id":103,"left_children":[1,3,5,-1,-1,-1,-1],"loss_changes":[3.5160508E3,4.212251E2,6.2115753E2,0E0,0E0,0E0,0E0],"parents":[2147483647,0,0,1,1,2,2],"right_children":[2,4,6,-1,-1,-1,-1],"split_conditions":[3.0599752E-1,-5.03415E-1,1.6E1,-7.992601E-3,-4.222582E-3,5.369043E-3,-7.123881E-4],"split_indices":[0,0,3,0,0,0,0],"split_type":[0,0,0,0,0,0,0],"sum_hessian":[1.9534E4,1.2309E4,7.225E3,5.339E3,6.97E3,4.432E3,2.793E3],"tree_param":{"num_deleted":"0","num_feature":"17","num_nodes":"7","size_leaf_vector":"1"}},{"base_weights":[-2.5349015E-1,-5.762064E-1,2.923204E-1,-8.488659E-3,-4.4528483E-3,7.586944E-3,1.0507763E-3],"categories":[],"categories_nodes":[],"categories_segments":[],"categories_sizes":[],"default_left":[0,0,0,0,0,0,0],"id":104,"left_children":[1,3,5,-1,-1,-1,-1],"loss_changes":[3.444455E3,4.394756E2,6.277533E2,0E0,0E0,0E0,0E0],"parents":[2147483647,0,0,1,1,2,2],"right_children":[2,4,6,-1,-1,-1,-1],"split_conditions":[3.0599752E-1,-6.8328446E-1,-1.0843943E0,-8.488659E-3,-4.4528483E-3,7.586944E-3,1.0507763E-3],"split_indices":[0,0,12,0,0,0,0],"split_type":[0,0,0,0,0,0,0],"sum_hessian":[1.9555E4,1.2289E4,7.266E3,4.162E3,8.127E3,2.114E3,5.152E3],"tree_param":{"num_deleted":"0","num_feature":"17","num_nodes":"7","size_leaf_vector":"1"}},{"base_weights":[-2.538971E-1,-5.264487E-1,4.003118E-1,-7.953937E-3,-3.641626E-3,8.218082E-3,2.1302095E-3],"categories":[],"categories_nodes":[],"categories_segments":[],"categories_sizes":[],"default_left":[0,0,0,0,0,0,0],"id":105,"left_children":[1,3,5,-1,-1,-1,-1],"loss_changes":[3.5001409E3,6.001372E2,4.519698E2,0E0,0E0,0E0,0E0],"parents":[2147483647,0,0,1,1,2,2],"right_children":[2,4,6,-1,-1,-1,-1],"split_conditions":[4.8586696E-1,-5.03415E-1,-1.0843943E0,-7.953937E-3,-3.641626E-3,8.218082E-3,2.1302095E-3],"split_indices":[0,0,12,0,0,0,0],"split_type":[0,0,0,0,0,0,0],"sum_hessian":[1.963E4,1.3857E4,5.773E3,5.384E3,8.473E3,1.814E3,3.959E3],"tree_param":{"num_deleted":"0","num_feature":"17","num_nodes":"7","size_leaf_vector":"1"}},{"base_weights":[-2.5430658E-1,-5.493022E-1,3.4542635E-1,-8.446619E-3,-4.174848E-3,7.927175E-3,1.5753938E-3],"categories":[],"categories_nodes":[],"categories_segments":[],"categories_sizes":[],"default_left":[0,0,0,0,0,0,0],"id":106,"left_children":[1,3,5,-1,-1,-1,-1],"loss_changes":[3.4610586E3,5.11636E2,5.3696857E2,0E0,0E0,0E0,0E0],"parents":[2147483647,0,0,1,1,2,2],"right_children":[2,4,6,-1,-1,-1,-1],"split_conditions":[3.9593226E-1,-6.8328446E-1,-1.0843943E0,-8.446619E-3,-4.174848E-3,7.927175E-3,1.5753938E-3],"split_indices":[0,0,12,0,0,0,0],"split_type":[0,0,0,0,0,0,0],"sum_hessian":[1.9563E4,1.3113E4,6.45E3,4.215E3,8.898E3,1.943E3,4.507E3],"tree_param":{"num_deleted":"0","num_feature":"17","num_nodes":"7","size_leaf_vector":"1"}},{"base_weights":[-2.584373E-1,-5.800308E-1,2.913953E-1,-8.477856E-3,-4.50214E-3,7.5282184E-3,1.0550469E-3],"categories":[],"categories_nodes":[],"categories_segments":[],"categories_sizes":[],"default_left":[0,0,0,0,0,0,0],"id":107,"left_children":[1,3,5,-1,-1,-1,-1],"loss_changes":[3.4579424E3,4.297119E2,6.124601E2,0E0,0E0,0E0,0E0],"parents":[2147483647,0,0,1,1,2,2],"right_children":[2,4,6,-1,-1,-1,-1],"split_conditions":[3.0599752E-1,-6.8328446E-1,-1.0843943E0,-8.477856E-3,-4.50214E-3,7.5282184E-3,1.0550469E-3],"split_indices":[0,0,12,0,0,0,0],"split_type":[0,0,0,0,0,0,0],"sum_hessian":[1.9556E4,1.2339E4,7.217E3,4.209E3,8.13E3,2.105E3,5.112E3],"tree_param":{"num_deleted":"0","num_feature":"17","num_nodes":"7","size_leaf_vector":"1"}},{"base_weights":[-2.5635126E-1,-5.2907145E-1,4.012206E-1,-7.994817E-3,-3.6537002E-3,4.8846295E-3,-5.6756637E-3],"categories":[],"categories_nodes":[],"categories_segments":[],"categories_sizes":[],"default_left":[0,0,0,0,0,0,0],"id":108,"left_children":[1,3,5,-1,-1,-1,-1],"loss_changes":[3.508294E3,6.0732983E2,4.551922E2,0E0,0E0,0E0,0E0],"parents":[2147483647,0,0,1,1,2,2],"right_children":[2,4,6,-1,-1,-1,-1],"split_conditions":[4.8586696E-1,-5.03415E-1,2.6E1,-7.994817E-3,-3.6537002E-3,4.8846295E-3,-5.6756637E-3],"split_indices":[0,0,3,0,0,0,0],"split_type":[0,0,0,0,0,0,0],"sum_hessian":[1.9563E4,1.3828E4,5.735E3,5.383E3,8.445E3,5.283E3,4.52E2],"tree_param":{"num_deleted":"0","num_feature":"17","num_nodes":"7","size_leaf_vector":"1"}},{"base_weights":[-2.5524727E-1,-5.27518E-1,3.9857218E-1,-8.017525E-3,-3.6310311E-3,4.831925E-3,-5.692727E-3],"categories":[],"categories_nodes":[],"categories_segments":[],"categories_sizes":[],"default_left":[0,0,0,0,0,0,0],"id":109,"left_children":[1,3,5,-1,-1,-1,-1],"loss_changes":[3.4773616E3,6.170156E2,4.4117242E2,0E0,0E0,0E0,0E0],"parents":[2147483647,0,0,1,1,2,2],"right_children":[2,4,6,-1,-1,-1,-1],"split_conditions":[4.8586696E-1,-5.03415E-1,2.6E1,-8.017525E-3,-3.6310311E-3,4.831925E-3,-5.692727E-3],"split_indices":[0,0,3,0,0,0,0],"split_type":[0,0,0,0,0,0,0],"sum_hessian":[1.9534E4,1.3791E4,5.743E3,5.335E3,8.456E3,5.303E3,4.4E2],"tree_param":{"num_deleted":"0","num_feature":"17","num_nodes":"7","size_leaf_vector":"1"}},{"base_weights":[-2.561188E-1,-5.272701E-1,3.9498433E-1,-7.948252E-3,-3.6619531E-3,6.187086E-3,2.2889517E-4],"categories":[],"categories_nodes":[],"categories_segments":[],"categories_sizes":[],"default_left":[0,0,0,0,0,0,0],"id":110,"left_children":[1,3,5,-1,-1,-1,-1],"loss_changes":[3.447972E3,5.8971704E2,4.6519702E2,0E0,0E0,0E0,0E0],"parents":[2147483647,0,0,1,1,2,2],"right_children":[2,4,6,-1,-1,-1,-1],"split_conditions":[4.8586696E-1,-5.03415E-1,-4.8960976E-2,-7.948252E-3,-3.6619531E-3,6.187086E-3,2.2889517E-4],"split_indices":[0,0,10,0,0,0,0],"split_type":[0,0,0,0,0,0,0],"sum_hessian":[1.953E4,1.3788E4,5.742E3,5.351E3,8.437E3,3.624E3,2.118E3],"tree_param":{"num_deleted":"0","num_feature":"17","num_nodes":"7","size_leaf_vector":"1"}},{"base_weights":[-2.5502667E-1,-5.7689804E-1,2.9224378E-1,-8.431136E-3,-4.478066E-3,5.269071E-3,-7.690725E-4],"categories":[],"categories_nodes":[],"categories_segments":[],"categories_sizes":[],"default_left":[0,0,0,0,0,0,0],"id":111,"left_children":[1,3,5,-1,-1,-1,-1],"loss_changes":[3.4342334E3,4.2268555E2,6.102756E2,0E0,0E0,0E0,0E0],"parents":[2147483647,0,0,1,1,2,2],"right_children":[2,4,6,-1,-1,-1,-1],"split_conditions":[3.0599752E-1,-6.8328446E-1,1.6E1,-8.431136E-3,-4.478066E-3,5.269071E-3,-7.690725E-4],"split_indices":[0,0,3,0,0,0,0],"split_type":[0,0,0,0,0,0,0],"sum_hessian":[1.9496E4,1.2276E4,7.22E3,4.188E3,8.088E3,4.449E3,2.771E3],"tree_param":{"num_deleted":"0","num_feature":"17","num_nodes":"7","size_leaf_vector":"1"}},{"base_weights":[-2.5765175E-1,-5.2854246E-1,3.9448902E-1,-7.985034E-3,-3.6689306E-3,4.8151603E-3,-5.9144143E-3],"categories":[],"categories_nodes":[],"categories_segments":[],"categories_sizes":[],"default_left":[0,0,0,0,0,0,0],"id":112,"left_children":[1,3,5,-1,-1,-1,-1],"loss_changes":[3.4515605E3,5.978921E2,4.6227814E2,0E0,0E0,0E0,0E0],"parents":[2147483647,0,0,1,1,2,2],"right_children":[2,4,6,-1,-1,-1,-1],"split_conditions":[4.8586696E-1,-5.03415E-1,2.6E1,-7.985034E-3,-3.6689306E-3,4.8151603E-3,-5.9144143E-3],"split_indices":[0,0,3,0,0,0,0],"split_type":[0,0,0,0,0,0,0],"sum_hessian":[1.9538E4,1.3804E4,5.734E3,5.339E3,8.465E3,5.29E3,4.44E2],"tree_param":{"num_deleted":"0","num_feature":"17","num_nodes":"7","size_leaf_vector":"1"}},{"base_weights":[-2.581669E-1,-5.799072E-1,2.871533E-1,-8.456203E-3,-4.4991816E-3,5.2469294E-3,-8.594973E-4],"categories":[],"categories_nodes":[],"categories_segments":[],"categories_sizes":[],"default_left":[0,0,0,0,0,0,0],"id":113,"left_children":[1,3,5,-1,-1,-1,-1],"loss_changes":[3.426567E3,4.2496533E2,6.267987E2,0E0,0E0,0E0,0E0],"parents":[2147483647,0,0,1,1,2,2],"right_children":[2,4,6,-1,-1,-1,-1],"split_conditions":[3.0599752E-1,-6.8328446E-1,1.6E1,-8.456203E-3,-4.4991816E-3,5.2469294E-3,-8.594973E-4],"split_indices":[0,0,3,0,0,0,0],"split_type":[0,0,0,0,0,0,0],"sum_hessian":[1.953E4,1.2283E4,7.247E3,4.215E3,8.068E3,4.462E3,2.785E3],"tree_param":{"num_deleted":"0","num_feature":"17","num_nodes":"7","size_leaf_vector":"1"}},{"base_weights":[-2.5970027E-1,-5.8157295E-1,2.9236344E-1,-8.502368E-3,-4.5009647E-3,7.539846E-3,1.0768309E-3],"categories":[],"categories_nodes":[],"categories_segments":[],"categories_sizes":[],"default_left":[0,0,0,0,0,0,0],"id":114,"left_children":[1,3,5,-1,-1,-1,-1],"loss_changes":[3.4621943E3,4.3540723E2,6.0535223E2,0E0,0E0,0E0,0E0],"parents":[2147483647,0,0,1,1,2,2],"right_children":[2,4,6,-1,-1,-1,-1],"split_conditions":[3.0599752E-1,-6.8328446E-1,-1.0843943E0,-8.502368E-3,-4.5009647E-3,7.539846E-3,1.0768309E-3],"split_indices":[0,0,12,0,0,0,0],"split_type":[0,0,0,0,0,0,0],"sum_hessian":[1.9484E4,1.2308E4,7.176E3,4.223E3,8.085E3,2.083E3,5.093E3],"tree_param":{"num_deleted":"0","num_feature":"17","num_nodes":"7","size_leaf_vector":"1"}},{"base_weights":[-2.572334E-1,-5.7940817E-1,2.9265255E-1,-8.463459E-3,-4.4993847E-3,7.5652883E-3,1.0930056E-3],"categories":[],"categories_nodes":[],"categories_segments":[],"categories_sizes":[],"default_left":[0,0,0,0,0,0,0],"id":115,"left_children":[1,3,5,-1,-1,-1,-1],"loss_changes":[3.4655918E3,4.2712744E2,6.083194E2,0E0,0E0,0E0,0E0],"parents":[2147483647,0,0,1,1,2,2],"right_children":[2,4,6,-1,-1,-1,-1],"split_conditions":[3.0599752E-1,-6.8328446E-1,-1.0843943E0,-8.463459E-3,-4.4993847E-3,7.5652883E-3,1.0930056E-3],"split_indices":[0,0,12,0,0,0,0],"split_type":[0,0,0,0,0,0,0],"sum_hessian":[1.9562E4,1.2335E4,7.227E3,4.209E3,8.126E3,2.08E3,5.147E3],"tree_param":{"num_deleted":"0","num_feature":"17","num_nodes":"7","size_leaf_vector":"1"}},{"base_weights":[-2.564824E-1,-5.5369E-1,3.4728682E-1,-8.019752E-3,-3.9272E-3,7.967144E-3,1.5737051E-3],"categories":[],"categories_nodes":[],"categories_segments":[],"categories_sizes":[],"default_left":[0,0,0,0,0,0,0],"id":116,"left_children":[1,3,5,-1,-1,-1,-1],"loss_changes":[3.5086843E3,5.19178E2,5.4530554E2,0E0,0E0,0E0,0E0],"parents":[2147483647,0,0,1,1,2,2],"right_children":[2,4,6,-1,-1,-1,-1],"split_conditions":[3.9593226E-1,-5.03415E-1,-1.0843943E0,-8.019752E-3,-3.9272E-3,7.967144E-3,1.5737051E-3],"split_indices":[0,0,12,0,0,0,0],"split_type":[0,0,0,0,0,0,0],"sum_hessian":[1.9553E4,1.3103E4,6.45E3,5.331E3,7.772E3,1.951E3,4.499E3],"tree_param":{"num_deleted":"0","num_feature":"17","num_nodes":"7","size_leaf_vector":"1"}},{"base_weights":[-2.598514E-1,-5.849179E-1,2.9504785E-1,-7.993482E-3,-4.2927912E-3,7.5834687E-3,1.1042561E-3],"categories":[],"categories_nodes":[],"categories_segments":[],"categories_sizes":[],"default_left":[0,0,0,0,0,0,0],"id":117,"left_children":[1,3,5,-1,-1,-1,-1],"loss_changes":[3.5200996E3,4.0633984E2,6.1022327E2,0E0,0E0,0E0,0E0],"parents":[2147483647,0,0,1,1,2,2],"right_children":[2,4,6,-1,-1,-1,-1],"split_conditions":[3.0599752E-1,-5.03415E-1,-1.0843943E0,-7.993482E-3,-4.2927912E-3,7.5834687E-3,1.1042561E-3],"split_indices":[0,0,12,0,0,0,0],"split_type":[0,0,0,0,0,0,0],"sum_hessian":[1.9515E4,1.2306E4,7.209E3,5.37E3,6.936E3,2.087E3,5.122E3],"tree_param":{"num_deleted":"0","num_feature":"17","num_nodes":"7","size_leaf_vector":"1"}},{"base_weights":[-2.5827545E-1,-5.8021307E-1,2.97049E-1,-8.490514E-3,-4.5033027E-3,7.5593614E-3,1.1182497E-3],"categories":[],"categories_nodes":[],"categories_segments":[],"categories_sizes":[],"default_left":[0,0,0,0,0,0,0],"id":118,"left_children":[1,3,5,-1,-1,-1,-1],"loss_changes":[3.4997942E3,4.3355664E2,6.04249E2,0E0,0E0,0E0,0E0],"parents":[2147483647,0,0,1,1,2,2],"right_children":[2,4,6,-1,-1,-1,-1],"split_conditions":[3.0599752E-1,-6.8328446E-1,-1.0843943E0,-8.490514E-3,-4.5033027E-3,7.5593614E-3,1.1182497E-3],"split_indices":[0,0,12,0,0,0,0],"split_type":[0,0,0,0,0,0,0],"sum_hessian":[1.9576E4,1.2392E4,7.184E3,4.217E3,8.175E3,2.099E3,5.085E3],"tree_param":{"num_deleted":"0","num_feature":"17","num_nodes":"7","size_leaf_vector":"1"}},{"base_weights":[-2.5601146E-1,-5.2630436E-1,3.9619347E-1,-7.974278E-3,-3.6264376E-3,6.1746966E-3,2.4540257E-4],"categories":[],"categories_nodes":[],"categories_segments":[],"categories_sizes":[],"default_left":[0,0,0,0,0,0,0],"id":119,"left_children":[1,3,5,-1,-1,-1,-1],"loss_changes":[3.445693E3,6.083843E2,4.5826404E2,0E0,0E0,0E0,0E0],"parents":[2147483647,0,0,1,1,2,2],"right_children":[2,4,6,-1,-1,-1,-1],"split_conditions":[4.8586696E-1,-5.03415E-1,-4.8960976E-2,-7.974278E-3,-3.6264376E-3,6.1746966E-3,2.4540257E-4],"split_indices":[0,0,10,0,0,0,0],"split_type":[0,0,0,0,0,0,0],"sum_hessian":[1.9546E4,1.3819E4,5.727E3,5.369E3,8.45E3,3.628E3,2.099E3],"tree_param":{"num_deleted":"0","num_feature":"17","num_nodes":"7","size_leaf_vector":"1"}},{"base_weights":[-2.5744954E-1,-5.5090547E-1,3.4298614E-1,-7.957063E-3,-3.909216E-3,7.952178E-3,1.5391547E-3],"categories":[],"categories_nodes":[],"categories_segments":[],"categories_sizes":[],"default_left":[0,0,0,0,0,0,0],"id":120,"left_children":[1,3,5,-1,-1,-1,-1],"loss_changes":[3.447381E3,5.101831E2,5.439786E2,0E0,0E0,0E0,0E0],"parents":[2147483647,0,0,1,1,2,2],"right_children":[2,4,6,-1,-1,-1,-1],"split_conditions":[3.9593226E-1,-5.03415E-1,-1.0843943E0,-7.957063E-3,-3.909216E-3,7.952178E-3,1.5391547E-3],"split_indices":[0,0,12,0,0,0,0],"split_type":[0,0,0,0,0,0,0],"sum_hessian":[1.9565E4,1.3142E4,6.423E3,5.373E3,7.769E3,1.928E3,4.495E3],"tree_param":{"num_deleted":"0","num_feature":"17","num_nodes":"7","size_leaf_vector":"1"}},{"base_weights":[-2.5533548E-1,-5.7834065E-1,2.956654E-1,-8.43596E-3,-4.5046248E-3,7.5087743E-3,1.1353629E-3],"categories":[],"categories_nodes":[],"categories_segments":[],"categories_sizes":[],"default_left":[0,0,0,0,0,0,0],"id":121,"left_children":[1,3,5,-1,-1,-1,-1],"loss_changes":[3.4774756E3,4.187881E2,5.9253143E2,0E0,0E0,0E0,0E0],"parents":[2147483647,0,0,1,1,2,2],"right_children":[2,4,6,-1,-1,-1,-1],"split_conditions":[3.0599752E-1,-6.8328446E-1,-1.0843943E0,-8.43596E-3,-4.5046248E-3,7.5087743E-3,1.1353629E-3],"split_indices":[0,0,12,0,0,0,0],"split_type":[0,0,0,0,0,0,0],"sum_hessian":[1.9539E4,1.2318E4,7.221E3,4.188E3,8.13E3,2.097E3,5.124E3],"tree_param":{"num_deleted":"0","num_feature":"17","num_nodes":"7","size_leaf_vector":"1"}},{"base_weights":[-7.581641E-2,-3.2578546E-1,4.4266143E-1,1.01E-2,-3.7301695E-3,5.2953525E-3,-5.909574E-3],"categories":[],"categories_nodes":[],"categories_segments":[],"categories_sizes":[],"default_left":[0,0,0,0,0,0,0],"id":122,"left_children":[1,3,5,-1,-1,-1,-1],"loss_changes":[2.03594E3,6.117998E2,4.287168E2,0E0,0E0,0E0,0E0],"parents":[2147483647,0,0,1,1,2,2],"right_children":[2,4,6,-1,-1,-1,-1],"split_conditions":[5.7580173E-1,-6.8328446E-1,2.6E1,1.01E-2,-3.7301695E-3,5.2953525E-3,-5.909574E-3],"split_indices":[0,0,3,0,0,0,0],"split_type":[0,0,0,0,0,0,0],"sum_hessian":[1.5709E4,1.0599E4,5.11E3,3.37E2,1.0262E4,4.734E3,3.76E2],"tree_param":{"num_deleted":"0","num_feature":"17","num_nodes":"7","size_leaf_vector":"1"}},{"base_weights":[-2.5794908E-1,-5.7770216E-1,2.8864264E-1,-8.424248E-3,-4.489856E-3,7.555502E-3,1.047669E-3],"categories":[],"categories_nodes":[],"categories_segments":[],"categories_sizes":[],"default_left":[0,0,0,0,0,0,0],"id":123,"left_children":[1,3,5,-1,-1,-1,-1],"loss_changes":[3.4189368E3,4.2135938E2,6.13368E2,0E0,0E0,0E0,0E0],"parents":[2147483647,0,0,1,1,2,2],"right_children":[2,4,6,-1,-1,-1,-1],"split_conditions":[3.0599752E-1,-6.8328446E-1,-1.0843943E0,-8.424248E-3,-4.489856E-3,7.555502E-3,1.047669E-3],"split_indices":[0,0,12,0,0,0,0],"split_type":[0,0,0,0,0,0,0],"sum_hessian":[1.9562E4,1.2342E4,7.22E3,4.219E3,8.123E3,2.072E3,5.148E3],"tree_param":{"num_deleted":"0","num_feature":"17","num_nodes":"7","size_leaf_vector":"1"}},{"base_weights":[-7.377573E-2,-3.4414342E-1,3.961141E-1,1.01E-2,-3.9498853E-3,6.254252E-3,1.6713949E-4],"categories":[],"categories_nodes":[],"categories_segments":[],"categories_sizes":[],"default_left":[0,0,0,0,0,0,0],"id":124,"left_children":[1,3,5,-1,-1,-1,-1],"loss_changes":[1.987207E3,6.263856E2,4.8382385E2,0E0,0E0,0E0,0E0],"parents":[2147483647,0,0,1,1,2,2],"right_children":[2,4,6,-1,-1,-1,-1],"split_conditions":[4.8586696E-1,-6.8328446E-1,-4.8960976E-2,1.01E-2,-3.9498853E-3,6.254252E-3,1.6713949E-4],"split_indices":[0,0,10,0,0,0,0],"split_type":[0,0,0,0,0,0,0],"sum_hessian":[1.5642E4,9.929E3,5.713E3,3.35E2,9.594E3,3.598E3,2.115E3],"tree_param":{"num_deleted":"0","num_feature":"17","num_nodes":"7","size_leaf_vector":"1"}},{"base_weights":[-2.551703E-1,-5.261664E-1,3.9814E-1,-7.968265E-3,-3.6490166E-3,6.177507E-3,2.949258E-4],"categories":[],"categories_nodes":[],"categories_segments":[],"categories_sizes":[],"default_left":[0,0,0,0,0,0,0],"id":125,"left_children":[1,3,5,-1,-1,-1,-1],"loss_changes":[3.441392E3,5.952422E2,4.488902E2,0E0,0E0,0E0,0E0],"parents":[2147483647,0,0,1,1,2,2],"right_children":[2,4,6,-1,-1,-1,-1],"split_conditions":[4.8586696E-1,-5.03415E-1,-4.8960976E-2,-7.968265E-3,-3.6490166E-3,6.177507E-3,2.949258E-4],"split_indices":[0,0,10,0,0,0,0],"split_type":[0,0,0,0,0,0,0],"sum_hessian":[1.9438E4,1.3739E4,5.699E3,5.297E3,8.442E3,3.61E3,2.089E3],"tree_param":{"num_deleted":"0","num_feature":"17","num_nodes":"7","size_leaf_vector":"1"}},{"base_weights":[-7.533065E-2,-3.266951E-1,4.4379163E-1,1.01E-2,-3.752843E-3,5.3121992E-3,-6.2027173E-3],"categories":[],"categories_nodes":[],"categories_segments":[],"categories_sizes":[],"default_left":[0,0,0,0,0,0,0],"id":126,"left_children":[1,3,5,-1,-1,-1,-1],"loss_changes":[2.0422819E3,6.277804E2,4.4385474E2,0E0,0E0,0E0,0E0],"parents":[2147483647,0,0,1,1,2,2],"right_children":[2,4,6,-1,-1,-1,-1],"split_conditions":[5.7580173E-1,-6.8328446E-1,2.6E1,1.01E-2,-3.752843E-3,5.3121992E-3,-6.2027173E-3],"split_indices":[0,0,3,0,0,0,0],"split_type":[0,0,0,0,0,0,0],"sum_hessian":[1.5651E4,1.0545E4,5.106E3,3.45E2,1.02E4,4.738E3,3.68E2],"tree_param":{"num_deleted":"0","num_feature":"17","num_nodes":"7","size_leaf_vector":"1"}},{"base_weights":[-2.572447E-1,-5.8104175E-1,2.9335716E-1,-8.489163E-3,-4.507643E-3,7.5655426E-3,1.0483543E-3],"categories":[],"categories_nodes":[],"categories_segments":[],"categories_sizes":[],"default_left":[0,0,0,0,0,0,0],"id":127,"left_children":[1,3,5,-1,-1,-1,-1],"loss_changes":[3.5005916E3,4.322583E2,6.280951E2,0E0,0E0,0E0,0E0],"parents":[2147483647,0,0,1,1,2,2],"right_children":[2,4,6,-1,-1,-1,-1],"split_conditions":[3.0599752E-1,-6.8328446E-1,-1.0843943E0,-8.489163E-3,-4.507643E-3,7.5655426E-3,1.0483543E-3],"split_indices":[0,0,12,0,0,0,0],"split_type":[0,0,0,0,0,0,0],"sum_hessian":[1.9635E4,1.2364E4,7.271E3,4.226E3,8.138E3,2.136E3,5.135E3],"tree_param":{"num_deleted":"0","num_feature":"17","num_nodes":"7","size_leaf_vector":"1"}},{"base_weights":[-2.6051623E-1,-5.3251266E-1,3.921807E-1,-7.9691345E-3,-3.7274808E-3,6.125863E-3,2.9316478E-4],"categories":[],"categories_nodes":[],"categories_segments":[],"categories_sizes":[],"default_left":[0,0,0,0,0,0,0],"id":128,"left_children":[1,3,5,-1,-1,-1,-1],"loss_changes":[3.473399E3,5.790254E2,4.4796167E2,0E0,0E0,0E0,0E0],"parents":[2147483647,0,0,1,1,2,2],"right_children":[2,4,6,-1,-1,-1,-1],"split_conditions":[4.8586696E-1,-5.03415E-1,-4.8960976E-2,-7.9691345E-3,-3.7274808E-3,6.125863E-3,2.9316478E-4],"split_indices":[0,0,10,0,0,0,0],"split_type":[0,0,0,0,0,0,0],"sum_hessian":[1.9565E4,1.381E4,5.755E3,5.375E3,8.435E3,3.619E3,2.136E3],"tree_param":{"num_deleted":"0","num_feature":"17","num_nodes":"7","size_leaf_vector":"1"}},{"base_weights":[-7.2772495E-2,-3.2329544E-1,4.4403204E-1,1.01E-2,-3.7234474E-3,5.3335163E-3,-6.070603E-3],"categories":[],"categories_nodes":[],"categories_segments":[],"categories_sizes":[],"default_left":[0,0,0,0,0,0,0],"id":129,"left_children":[1,3,5,-1,-1,-1,-1],"loss_changes":[2.0299822E3,6.338987E2,4.4958893E2,0E0,0E0,0E0,0E0],"parents":[2147483647,0,0,1,1,2,2],"right_children":[2,4,6,-1,-1,-1,-1],"split_conditions":[5.7580173E-1,-6.8328446E-1,2.6E1,1.01E-2,-3.7234474E-3,5.3335163E-3,-6.070603E-3],"split_indices":[0,0,3,0,0,0,0],"split_type":[0,0,0,0,0,0,0],"sum_hessian":[1.5679E4,1.056E4,5.119E3,3.5E2,1.021E4,4.738E3,3.81E2],"tree_param":{"num_deleted":"0","num_feature":"17","num_nodes":"7","size_leaf_vector":"1"}},{"base_weights":[-2.5952515E-1,-5.83055E-1,2.9006365E-1,-8.461122E-3,-4.5495043E-3,7.5918166E-3,1.017096E-3],"categories":[],"categories_nodes":[],"categories_segments":[],"categories_sizes":[],"default_left":[0,0,0,0,0,0,0],"id":130,"left_children":[1,3,5,-1,-1,-1,-1],"loss_changes":[3.4674412E3,4.14562E2,6.3161993E2,0E0,0E0,0E0,0E0],"parents":[2147483647,0,0,1,1,2,2],"right_children":[2,4,6,-1,-1,-1,-1],"split_conditions":[3.0599752E-1,-6.8328446E-1,-1.0843943E0,-8.461122E-3,-4.5495043E-3,7.5918166E-3,1.017096E-3],"split_indices":[0,0,12,0,0,0,0],"split_type":[0,0,0,0,0,0,0],"sum_hessian":[1.9501E4,1.2275E4,7.226E3,4.203E3,8.072E3,2.102E3,5.124E3],"tree_param":{"num_deleted":"0","num_feature":"17","num_nodes":"7","size_leaf_vector":"1"}},{"base_weights":[-7.650169E-2,-3.2528758E-1,4.415865E-1,1.01E-2,-3.7421994E-3,5.2721654E-3,-6.06E-3],"categories":[],"categories_nodes":[],"categories_segments":[],"categories_sizes":[],"default_left":[0,0,0,0,0,0,0],"id":131,"left_children":[1,3,5,-1,-1,-1,-1],"loss_changes":[2.0234916E3,6.357141E2,4.2655963E2,0E0,0E0,0E0,0E0],"parents":[2147483647,0,0,1,1,2,2],"right_children":[2,4,6,-1,-1,-1,-1],"split_conditions":[5.7580173E-1,-6.8328446E-1,2.6E1,1.01E-2,-3.7421994E-3,5.2721654E-3,-6.06E-3],"split_indices":[0,0,3,0,